################################################################################
# Neural network connection values (weights and biases).
################################################################################
# Col  Name       Description
################################################################################
# 1    connection Neural network connection value.
# 2    t          Connection type (a = weight, b = bias).
# 3    index      Index enumerating weights.
# 4    l_s        Starting point layer (end point layer for biases).
# 5    n_s        Starting point neuron in starting layer (end point neuron for biases).
# 6    l_e        End point layer.
# 7    n_e        End point neuron in end layer.
################################################################################
#                      1 2         3     4     5     6     7
#             connection t     index   l_s   n_s   l_e   n_e
############################################################
 -3.0196455341362832E-01 a         1     0     1     1     1
  2.4149947591681586E+00 a         2     0     1     1     2
  5.0806650219055582E-01 a         3     0     1     1     3
  2.9477731752107339E-01 a         4     0     1     1     4
 -6.2324309984207626E-01 a         5     0     1     1     5
 -5.6556800734647539E-01 a         6     0     1     1     6
  1.2709374000804419E+00 a         7     0     1     1     7
  5.8110207931984359E-01 a         8     0     1     1     8
  2.1131308473966799E+00 a         9     0     1     1     9
 -1.8434270971343962E+00 a        10     0     1     1    10
 -4.6497117672438804E-01 a        11     0     1     1    11
 -1.9441403675029441E+00 a        12     0     1     1    12
  1.2848335613943946E+00 a        13     0     1     1    13
 -1.5050190055235741E+00 a        14     0     1     1    14
  9.3628836611688948E-01 a        15     0     1     1    15
 -2.1654299554092957E-01 a        16     0     1     1    16
 -3.9264422458855135E+00 a        17     0     1     1    17
 -3.5176629563604633E-01 a        18     0     1     1    18
 -1.3974714241886359E+00 a        19     0     1     1    19
  1.2593772767037339E+00 a        20     0     1     1    20
  2.4013933473329852E-01 a        21     0     2     1     1
 -1.1507455272971912E-01 a        22     0     2     1     2
  3.1832971771339375E-01 a        23     0     2     1     3
  1.8581037127827471E-01 a        24     0     2     1     4
  3.2406583700577068E-01 a        25     0     2     1     5
 -3.8404798462059209E-01 a        26     0     2     1     6
  3.2371625633058693E-01 a        27     0     2     1     7
  6.7321810935394966E-02 a        28     0     2     1     8
  7.9389260049375372E-03 a        29     0     2     1     9
  2.5185578518637203E-02 a        30     0     2     1    10
 -1.0266210727742259E-01 a        31     0     2     1    11
 -6.1634418473592389E-01 a        32     0     2     1    12
  3.4803755729850794E-01 a        33     0     2     1    13
  1.2209262574618199E-02 a        34     0     2     1    14
  4.1548278633608776E-01 a        35     0     2     1    15
  1.4834966826642421E-01 a        36     0     2     1    16
  5.4657669394513198E-01 a        37     0     2     1    17
 -4.6066274357004007E-02 a        38     0     2     1    18
  3.9384599031202205E-01 a        39     0     2     1    19
 -2.9977713106416914E-01 a        40     0     2     1    20
 -5.2597220582943083E-01 a        41     0     3     1     1
 -3.3097487765695682E-01 a        42     0     3     1     2
  9.0715969125319346E-02 a        43     0     3     1     3
  2.1941721037094070E-01 a        44     0     3     1     4
 -5.8370447670121539E-01 a        45     0     3     1     5
  7.0596526974997353E-01 a        46     0     3     1     6
  3.3140927835451423E-01 a        47     0     3     1     7
  3.1703946162882751E-01 a        48     0     3     1     8
  1.1145957171863644E-01 a        49     0     3     1     9
 -8.4001802495148092E-01 a        50     0     3     1    10
 -7.1128519904710719E-01 a        51     0     3     1    11
  2.9716870221537417E-01 a        52     0     3     1    12
 -3.5082025952432611E-01 a        53     0     3     1    13
  6.7221712319355142E-01 a        54     0     3     1    14
 -1.7389270376306382E-01 a        55     0     3     1    15
 -4.1428901202109752E-01 a        56     0     3     1    16
  5.9222802003476804E-01 a        57     0     3     1    17
  6.0347760354482949E-01 a        58     0     3     1    18
  5.9340304387680698E-01 a        59     0     3     1    19
  8.6947596817467865E-01 a        60     0     3     1    20
 -1.6663904628593046E-01 a        61     0     4     1     1
 -3.2255818418470611E-01 a        62     0     4     1     2
  2.6542873160986413E-01 a        63     0     4     1     3
  9.1855484861802617E-02 a        64     0     4     1     4
  3.1419442556086186E-01 a        65     0     4     1     5
 -1.0604155445573218E-01 a        66     0     4     1     6
  3.7492635370176736E-01 a        67     0     4     1     7
  2.5760017705681263E-02 a        68     0     4     1     8
  1.9168416723959084E-01 a        69     0     4     1     9
  2.2143446525419858E-01 a        70     0     4     1    10
  9.0916694626936060E-04 a        71     0     4     1    11
 -5.7896641677514515E-01 a        72     0     4     1    12
  2.0169807661742092E-01 a        73     0     4     1    13
  6.6046220300647385E-02 a        74     0     4     1    14
  1.4297342415038825E-01 a        75     0     4     1    15
 -2.9982372736014954E-02 a        76     0     4     1    16
  8.8062321771304009E-01 a        77     0     4     1    17
  2.4900001356691739E-01 a        78     0     4     1    18
  2.8502454949294898E-01 a        79     0     4     1    19
 -5.6560642228611946E-01 a        80     0     4     1    20
 -5.7047676137807557E-01 a        81     0     5     1     1
  4.8053073756033904E-01 a        82     0     5     1     2
  1.1085675080924999E-01 a        83     0     5     1     3
 -7.5453285835587491E-01 a        84     0     5     1     4
 -1.3235576164350396E+00 a        85     0     5     1     5
 -3.1710669746245723E-01 a        86     0     5     1     6
 -2.6759191828633749E-01 a        87     0     5     1     7
  8.1139078134675879E-01 a        88     0     5     1     8
  7.0306598655941732E-01 a        89     0     5     1     9
 -1.0511455154740115E+00 a        90     0     5     1    10
  2.7561781638355282E-01 a        91     0     5     1    11
  4.7948220413775833E-02 a        92     0     5     1    12
  6.3013173453944760E-01 a        93     0     5     1    13
  1.1978614555738825E+00 a        94     0     5     1    14
 -1.6542328248455637E-02 a        95     0     5     1    15
  9.2052598028055277E-01 a        96     0     5     1    16
  8.0879498230753022E-01 a        97     0     5     1    17
 -2.0236097624374702E-01 a        98     0     5     1    18
 -2.5375433248937635E-03 a        99     0     5     1    19
 -1.3936574376970370E-01 a       100     0     5     1    20
  1.4492500936756447E-01 a       101     0     6     1     1
 -5.7569670373227921E-01 a       102     0     6     1     2
 -5.8229539534629796E-02 a       103     0     6     1     3
  2.3856006798054358E-01 a       104     0     6     1     4
  3.7739123378929673E-01 a       105     0     6     1     5
  3.5646853749181118E-01 a       106     0     6     1     6
  8.8920903370945631E-02 a       107     0     6     1     7
 -5.1293764661431249E-02 a       108     0     6     1     8
 -2.1918738135581145E-01 a       109     0     6     1     9
  2.8320083095897786E-02 a       110     0     6     1    10
 -2.7832476608268009E-01 a       111     0     6     1    11
 -1.0912694207128588E-01 a       112     0     6     1    12
 -7.3063688196932791E-02 a       113     0     6     1    13
  2.4010735392073265E-01 a       114     0     6     1    14
 -8.0658998580895341E-02 a       115     0     6     1    15
  2.2623702719455235E-01 a       116     0     6     1    16
  7.9286495885901409E-01 a       117     0     6     1    17
  3.5264546232056870E-01 a       118     0     6     1    18
  3.3633133710203336E-02 a       119     0     6     1    19
  1.1708374708168852E-01 a       120     0     6     1    20
 -2.5179873133810199E-01 a       121     0     7     1     1
 -7.6518488257346043E-02 a       122     0     7     1     2
  1.6579337501775412E-01 a       123     0     7     1     3
 -5.6931633786078983E-01 a       124     0     7     1     4
 -1.2755968690975410E+00 a       125     0     7     1     5
  1.8118908457756838E-01 a       126     0     7     1     6
  5.2806382837167321E-01 a       127     0     7     1     7
  8.3201854004102616E-01 a       128     0     7     1     8
  2.6760903778858242E-01 a       129     0     7     1     9
 -6.0351200513321768E-01 a       130     0     7     1    10
  4.0121530603406302E-01 a       131     0     7     1    11
  5.4248955407289479E-01 a       132     0     7     1    12
  8.9171038527861429E-03 a       133     0     7     1    13
  2.6128520293226798E-01 a       134     0     7     1    14
  4.2408891158126683E-02 a       135     0     7     1    15
  2.3484644878315721E-02 a       136     0     7     1    16
  2.8813765146734754E-01 a       137     0     7     1    17
 -1.7195686931571239E-01 a       138     0     7     1    18
  8.9391839165549658E-02 a       139     0     7     1    19
  3.2938823086747010E-01 a       140     0     7     1    20
 -1.1775042153362243E-01 a       141     0     8     1     1
 -4.2370397248620012E-01 a       142     0     8     1     2
 -2.0077502330739777E-01 a       143     0     8     1     3
  4.2585805045550590E-01 a       144     0     8     1     4
  3.7901406560106399E-01 a       145     0     8     1     5
  1.7536851364791969E-01 a       146     0     8     1     6
 -1.2428563053455748E-01 a       147     0     8     1     7
 -2.1684326613093781E-02 a       148     0     8     1     8
 -3.0625365094543849E-01 a       149     0     8     1     9
  1.6449896508411510E-01 a       150     0     8     1    10
 -1.0944802782860551E-01 a       151     0     8     1    11
  2.1116686232563917E-01 a       152     0     8     1    12
 -2.3504266421310926E-01 a       153     0     8     1    13
  2.2371211001915339E-01 a       154     0     8     1    14
 -2.9122801097682066E-01 a       155     0     8     1    15
  1.1639709194580046E-02 a       156     0     8     1    16
  4.0226898242324993E-01 a       157     0     8     1    17
  5.6909499378903083E-01 a       158     0     8     1    18
  3.7760940646516444E-01 a       159     0     8     1    19
 -9.0860848847170578E-02 a       160     0     8     1    20
  5.9869653390221031E-02 a       161     0     9     1     1
  4.2348854422554018E-02 a       162     0     9     1     2
 -1.3858585231495180E-01 a       163     0     9     1     3
 -4.5302753635889131E-01 a       164     0     9     1     4
 -1.0676438533713901E+00 a       165     0     9     1     5
 -5.5559335185134129E-01 a       166     0     9     1     6
  2.5033384671568037E+00 a       167     0     9     1     7
  7.4327359799231940E-01 a       168     0     9     1     8
  3.6988230129757382E-01 a       169     0     9     1     9
 -1.0518544905180403E+00 a       170     0     9     1    10
 -3.3509753973609241E-01 a       171     0     9     1    11
  6.8207051492327908E-01 a       172     0     9     1    12
 -1.1498952049236015E-01 a       173     0     9     1    13
 -6.5085055311316553E-01 a       174     0     9     1    14
 -2.6155769052540156E-01 a       175     0     9     1    15
  9.2208303789357982E-01 a       176     0     9     1    16
  1.7440940128834542E-01 a       177     0     9     1    17
 -8.0509050262918469E-01 a       178     0     9     1    18
 -3.5593923233194424E-01 a       179     0     9     1    19
 -3.4491180932836119E-01 a       180     0     9     1    20
  1.6121400275342934E+00 a       181     0    10     1     1
 -5.1942138505676594E-01 a       182     0    10     1     2
 -8.6105303410661682E-01 a       183     0    10     1     3
  6.2272668297449085E-01 a       184     0    10     1     4
 -7.0223687090427656E-01 a       185     0    10     1     5
 -1.3184804053146406E+00 a       186     0    10     1     6
 -1.7545263784659959E+00 a       187     0    10     1     7
 -5.3566319132005469E-01 a       188     0    10     1     8
 -8.3271606878136173E-01 a       189     0    10     1     9
  1.0586190623670921E-01 a       190     0    10     1    10
 -5.9182524862775664E-02 a       191     0    10     1    11
 -1.7031258300774443E+00 a       192     0    10     1    12
  2.0156308477700557E+00 a       193     0    10     1    13
 -1.0580772266141907E+00 a       194     0    10     1    14
 -3.5698687549486324E-02 a       195     0    10     1    15
 -1.0416390702609892E+00 a       196     0    10     1    16
 -1.8521519825031090E+00 a       197     0    10     1    17
 -7.7495386017483547E-01 a       198     0    10     1    18
 -2.4854534855676924E-01 a       199     0    10     1    19
 -1.0033559662652229E+00 a       200     0    10     1    20
 -1.2757097439582838E+00 a       201     0    11     1     1
  1.0881134648717973E-01 a       202     0    11     1     2
  1.8081798301529106E+00 a       203     0    11     1     3
  2.5832144292390657E-01 a       204     0    11     1     4
  2.4272666560325651E-01 a       205     0    11     1     5
  1.2467725889548498E+00 a       206     0    11     1     6
  3.7815104741782557E+00 a       207     0    11     1     7
 -6.1255413278918902E-01 a       208     0    11     1     8
  6.4628175539856192E-01 a       209     0    11     1     9
 -3.6960569778835226E+00 a       210     0    11     1    10
 -1.4512932435358437E+00 a       211     0    11     1    11
  1.8231761949149039E+00 a       212     0    11     1    12
 -5.8080978394036242E-01 a       213     0    11     1    13
  4.9555478313203762E+00 a       214     0    11     1    14
 -6.7096246493183698E-01 a       215     0    11     1    15
  8.4703558959050695E-01 a       216     0    11     1    16
  3.0480761268669809E+00 a       217     0    11     1    17
  7.9943195260002697E-01 a       218     0    11     1    18
  1.9702492671240577E+00 a       219     0    11     1    19
  1.7628544749899162E+00 a       220     0    11     1    20
  1.7449647363753459E-01 a       221     0    12     1     1
  9.8745422730841595E-03 a       222     0    12     1     2
 -5.0614625559955728E-01 a       223     0    12     1     3
 -1.0461915430032831E+00 a       224     0    12     1     4
 -3.3678328044685241E-01 a       225     0    12     1     5
 -6.5181244005280148E-01 a       226     0    12     1     6
 -1.3854460934816853E-01 a       227     0    12     1     7
  2.5962889732231559E-01 a       228     0    12     1     8
  6.0832305937422693E-01 a       229     0    12     1     9
 -3.5633208111725762E-01 a       230     0    12     1    10
  1.6680699561722620E-01 a       231     0    12     1    11
  4.7670474593935308E-01 a       232     0    12     1    12
 -2.8410817039475383E-01 a       233     0    12     1    13
  1.5293271919285936E-01 a       234     0    12     1    14
  4.8549500411589708E-01 a       235     0    12     1    15
  2.1979964053109735E-01 a       236     0    12     1    16
 -1.1637189515288047E+00 a       237     0    12     1    17
 -1.8892253257127778E+00 a       238     0    12     1    18
 -1.5463179961510493E-01 a       239     0    12     1    19
 -2.4707812397905357E-01 a       240     0    12     1    20
  8.6286265423796904E-01 a       241     0    13     1     1
  9.4711575715049498E-02 a       242     0    13     1     2
 -4.2316427981122118E-01 a       243     0    13     1     3
 -1.8358559337284031E-01 a       244     0    13     1     4
  4.5123378196864482E-02 a       245     0    13     1     5
 -1.6549791144222479E+00 a       246     0    13     1     6
 -3.0503252995974450E-01 a       247     0    13     1     7
  2.0976814935072949E-01 a       248     0    13     1     8
  5.9483459265613248E-01 a       249     0    13     1     9
 -4.2227679109209176E-01 a       250     0    13     1    10
 -4.5031986144522201E-01 a       251     0    13     1    11
 -1.8050577735711211E+00 a       252     0    13     1    12
  1.0928111584254852E+00 a       253     0    13     1    13
 -1.8388447280923351E-01 a       254     0    13     1    14
  5.7785631030623352E-01 a       255     0    13     1    15
 -5.2247225322906077E-01 a       256     0    13     1    16
 -1.3690080174813832E+00 a       257     0    13     1    17
  8.7741672383654781E-02 a       258     0    13     1    18
 -7.2366568599861258E-01 a       259     0    13     1    19
 -7.8729022467821630E-01 a       260     0    13     1    20
 -1.7495119706889528E+00 a       261     0    14     1     1
 -4.2258919714686244E-01 a       262     0    14     1     2
  1.5779497178463351E+00 a       263     0    14     1     3
  3.3286824090120509E-01 a       264     0    14     1     4
  7.2312550896253813E-01 a       265     0    14     1     5
  1.8567415798021494E+00 a       266     0    14     1     6
  2.1408360457705835E+00 a       267     0    14     1     7
 -1.8411112074133518E+00 a       268     0    14     1     8
 -4.7728091219425844E-01 a       269     0    14     1     9
 -2.9150376440048293E+00 a       270     0    14     1    10
 -2.1759335925833865E+00 a       271     0    14     1    11
 -4.7666885809749948E-01 a       272     0    14     1    12
 -2.8519139010076155E-01 a       273     0    14     1    13
  2.8123707382911753E+00 a       274     0    14     1    14
 -3.0702609421015430E-02 a       275     0    14     1    15
 -2.6175687814219115E+00 a       276     0    14     1    16
  6.0251892110914262E-01 a       277     0    14     1    17
  4.3308339411871805E-01 a       278     0    14     1    18
  2.1553918759355390E+00 a       279     0    14     1    19
  2.5168087048603258E+00 a       280     0    14     1    20
  3.7297108851940319E-01 a       281     0    15     1     1
 -3.7149984788959711E-01 a       282     0    15     1     2
  1.8470030702372228E-01 a       283     0    15     1     3
  1.1116398330173219E-01 a       284     0    15     1     4
  6.7109244215361422E-02 a       285     0    15     1     5
  1.1624259104334208E-02 a       286     0    15     1     6
 -1.1344422978641692E-02 a       287     0    15     1     7
 -5.0122295925710558E-01 a       288     0    15     1     8
  3.6776381496946559E-01 a       289     0    15     1     9
  5.0276597775308096E-01 a       290     0    15     1    10
  2.8854675021081644E-01 a       291     0    15     1    11
  3.0605037702998400E-01 a       292     0    15     1    12
 -4.3755147451085569E-01 a       293     0    15     1    13
  7.6378904706199158E-01 a       294     0    15     1    14
 -4.7068897737744975E-01 a       295     0    15     1    15
 -1.8430596215659964E-01 a       296     0    15     1    16
 -9.3455365280295091E-02 a       297     0    15     1    17
 -1.0465395992608618E-01 a       298     0    15     1    18
  5.5502872161784611E-01 a       299     0    15     1    19
 -7.8091071719590219E-02 a       300     0    15     1    20
 -2.0802018044406028E+00 a       301     0    16     1     1
 -2.3149438886904436E-01 a       302     0    16     1     2
  1.0718964610649664E+00 a       303     0    16     1     3
  4.1289582263902824E-01 a       304     0    16     1     4
  6.5912596976712823E-01 a       305     0    16     1     5
  3.0267570665579757E-01 a       306     0    16     1     6
  1.6667307541119181E+00 a       307     0    16     1     7
  2.2269696829538823E+00 a       308     0    16     1     8
  1.0100664577375860E+00 a       309     0    16     1     9
  4.5432387873048463E-01 a       310     0    16     1    10
  1.7317018228457437E+00 a       311     0    16     1    11
  2.2156724271831361E+00 a       312     0    16     1    12
 -1.1629750527632621E+00 a       313     0    16     1    13
  8.4863908169460744E-01 a       314     0    16     1    14
 -1.9514878594154781E+00 a       315     0    16     1    15
 -2.6541591679455967E-01 a       316     0    16     1    16
  1.4867775054460981E+00 a       317     0    16     1    17
  1.9048770409589555E+00 a       318     0    16     1    18
  1.1592382887698236E+00 a       319     0    16     1    19
  1.3979082226067836E+00 a       320     0    16     1    20
  2.5909135309186476E-01 a       321     0    17     1     1
 -2.6040538348923875E-01 a       322     0    17     1     2
  3.5534538195282017E-02 a       323     0    17     1     3
  5.8251719348717965E-02 a       324     0    17     1     4
 -4.3870169923756908E-01 a       325     0    17     1     5
  4.8717308215469041E-01 a       326     0    17     1     6
 -2.4889832141573637E-01 a       327     0    17     1     7
 -6.9753629938028172E-01 a       328     0    17     1     8
 -3.3080897073056154E-01 a       329     0    17     1     9
  4.1294156395243081E-01 a       330     0    17     1    10
  6.8822684721065772E-02 a       331     0    17     1    11
  2.2298967384605783E-01 a       332     0    17     1    12
 -3.0595975950742771E-01 a       333     0    17     1    13
  1.4382572597017235E-01 a       334     0    17     1    14
 -1.0458838288897035E-01 a       335     0    17     1    15
 -2.6793347086687275E-01 a       336     0    17     1    16
 -1.6307844202615607E-01 a       337     0    17     1    17
 -5.7016995101412904E-01 a       338     0    17     1    18
  5.1104099943642116E-02 a       339     0    17     1    19
 -1.1222915670102571E-01 a       340     0    17     1    20
  9.9072757892749252E-01 a       341     0    18     1     1
 -6.6432463285452359E-01 a       342     0    18     1     2
 -9.5320458138746988E-01 a       343     0    18     1     3
  1.5553509509232533E-01 a       344     0    18     1     4
 -8.5890049664432855E-01 a       345     0    18     1     5
 -4.7744370905127897E-02 a       346     0    18     1     6
  1.4838086767475080E+00 a       347     0    18     1     7
 -6.2716268524603291E-01 a       348     0    18     1     8
 -1.9981445330912504E+00 a       349     0    18     1     9
 -1.1521539696447594E+00 a       350     0    18     1    10
 -6.5490849299315024E-01 a       351     0    18     1    11
 -1.7286494684133309E+00 a       352     0    18     1    12
  5.3951529939709218E-02 a       353     0    18     1    13
 -3.5624959382184884E-01 a       354     0    18     1    14
 -2.5993129217882767E+00 a       355     0    18     1    15
  1.8192618776429192E+00 a       356     0    18     1    16
 -6.7974435367988320E-02 a       357     0    18     1    17
  8.0590932861379749E-01 a       358     0    18     1    18
  8.0222913882353464E-01 a       359     0    18     1    19
 -5.0813272142560051E-01 a       360     0    18     1    20
  1.0500209983931687E-01 a       361     0    19     1     1
  4.2385687084570307E-02 a       362     0    19     1     2
 -2.2213327531396801E-01 a       363     0    19     1     3
 -7.5682742043737067E-02 a       364     0    19     1     4
 -3.5372649364500691E-01 a       365     0    19     1     5
  2.4768589058729434E-01 a       366     0    19     1     6
 -6.9672138306742837E-01 a       367     0    19     1     7
 -2.7087491600917429E-01 a       368     0    19     1     8
  1.7085596158291133E-01 a       369     0    19     1     9
  2.3617441840796008E-01 a       370     0    19     1    10
 -3.6578668461793452E-02 a       371     0    19     1    11
 -6.3206847350660914E-02 a       372     0    19     1    12
 -5.2113285180437473E-02 a       373     0    19     1    13
  1.6636924578785314E-01 a       374     0    19     1    14
 -3.5612022447337660E-02 a       375     0    19     1    15
 -1.1426185446412958E-01 a       376     0    19     1    16
 -1.4119334288653712E-01 a       377     0    19     1    17
 -3.9261494685795373E-01 a       378     0    19     1    18
  8.3139835958394456E-02 a       379     0    19     1    19
  7.4914285071846026E-02 a       380     0    19     1    20
  4.3855039780708738E-01 a       381     0    20     1     1
  1.3127881599164751E-01 a       382     0    20     1     2
  3.6695075497452351E-01 a       383     0    20     1     3
 -1.6427149399150276E-01 a       384     0    20     1     4
  1.7790588952169015E-01 a       385     0    20     1     5
  3.9717219789263186E-01 a       386     0    20     1     6
 -1.0011416968537731E-02 a       387     0    20     1     7
 -2.0123451771345016E+00 a       388     0    20     1     8
  1.9188279001239075E-01 a       389     0    20     1     9
  1.0599088167125877E-01 a       390     0    20     1    10
  1.8923032892564595E-01 a       391     0    20     1    11
 -2.1185470630524872E+00 a       392     0    20     1    12
  4.4730338024574301E-01 a       393     0    20     1    13
 -5.6735264769263705E-01 a       394     0    20     1    14
 -8.2780126838668311E-01 a       395     0    20     1    15
 -4.1193281921204866E-01 a       396     0    20     1    16
 -1.3323611545103053E-01 a       397     0    20     1    17
 -6.9242406050269867E-01 a       398     0    20     1    18
 -4.8128798615796337E-01 a       399     0    20     1    19
  3.7539561158512391E-01 a       400     0    20     1    20
 -1.4635573996304376E+00 a       401     0    21     1     1
  3.4102078217255531E+00 a       402     0    21     1     2
  4.0337408410355655E+00 a       403     0    21     1     3
  3.8543679862326989E+00 a       404     0    21     1     4
 -3.0214085473920109E+00 a       405     0    21     1     5
  5.6207511763109705E+00 a       406     0    21     1     6
 -3.2418308270729629E-01 a       407     0    21     1     7
 -1.8947789171726288E+00 a       408     0    21     1     8
 -4.9980404709545345E+00 a       409     0    21     1     9
 -7.5646989113116536E+00 a       410     0    21     1    10
  1.2089709712914853E+00 a       411     0    21     1    11
 -9.6932038819499966E-02 a       412     0    21     1    12
  4.8498715725311463E+00 a       413     0    21     1    13
 -8.8900188219736609E-01 a       414     0    21     1    14
 -5.0288598944293650E+00 a       415     0    21     1    15
 -3.5496350847354576E+00 a       416     0    21     1    16
  9.5984383561473479E+00 a       417     0    21     1    17
 -4.6039722950534401E+00 a       418     0    21     1    18
 -9.3699290373752735E+00 a       419     0    21     1    19
 -1.1048729130148300E+00 a       420     0    21     1    20
  4.0299733319075054E-01 a       421     0    22     1     1
 -2.0485410975503754E-01 a       422     0    22     1     2
 -3.6050554037167548E-01 a       423     0    22     1     3
 -8.6029795144666255E-01 a       424     0    22     1     4
 -1.5400550107871933E+00 a       425     0    22     1     5
  1.7739315200377218E-01 a       426     0    22     1     6
 -1.7403126698449101E+00 a       427     0    22     1     7
  6.6730189649519611E-01 a       428     0    22     1     8
 -4.9525021707737173E-03 a       429     0    22     1     9
  3.3155647817879941E-01 a       430     0    22     1    10
  8.7379088734908350E-02 a       431     0    22     1    11
 -2.6667947425578875E-01 a       432     0    22     1    12
  2.8554853151553883E-01 a       433     0    22     1    13
 -5.5670741805923774E-01 a       434     0    22     1    14
  1.1845122122992804E+00 a       435     0    22     1    15
 -1.1634578068471255E+00 a       436     0    22     1    16
 -1.0747072884622382E+00 a       437     0    22     1    17
 -6.3970553144025188E-01 a       438     0    22     1    18
 -8.3597312964539416E-01 a       439     0    22     1    19
  3.8071906945426209E-01 a       440     0    22     1    20
  2.1125595531781927E+00 a       441     0    23     1     1
 -3.2388136537747307E+00 a       442     0    23     1     2
  3.5044970712778865E+00 a       443     0    23     1     3
  7.1224187821361449E+00 a       444     0    23     1     4
 -2.7842481197926587E+00 a       445     0    23     1     5
  1.0543879479550382E+00 a       446     0    23     1     6
 -5.4071114780667706E+00 a       447     0    23     1     7
  5.4754077146469147E+00 a       448     0    23     1     8
 -5.5101205355554503E+00 a       449     0    23     1     9
  5.7063570838071049E+00 a       450     0    23     1    10
  6.7981312462110832E+00 a       451     0    23     1    11
  5.0615594498147178E+00 a       452     0    23     1    12
 -2.3985618928387269E+00 a       453     0    23     1    13
  4.1798656879477321E+00 a       454     0    23     1    14
  4.8699832923764746E-01 a       455     0    23     1    15
 -2.2024213671522475E+00 a       456     0    23     1    16
  5.8122319464699146E+00 a       457     0    23     1    17
  6.4921710663638095E+00 a       458     0    23     1    18
  2.4480815571325243E+00 a       459     0    23     1    19
 -2.0179664774440051E+00 a       460     0    23     1    20
  6.4595779555731117E+00 a       461     0    24     1     1
  1.0748538714631481E+01 a       462     0    24     1     2
 -1.0007848528497149E+01 a       463     0    24     1     3
  3.2929747589681750E+00 a       464     0    24     1     4
  4.8611484334737902E+00 a       465     0    24     1     5
 -7.0003795410403065E+00 a       466     0    24     1     6
  1.4323105097608479E+00 a       467     0    24     1     7
  5.5129718209230258E+00 a       468     0    24     1     8
  5.3192199366430399E+00 a       469     0    24     1     9
 -2.6786923754967562E+00 a       470     0    24     1    10
 -3.7404882479153634E+00 a       471     0    24     1    11
 -3.3584268696639956E+00 a       472     0    24     1    12
  2.7085986653594030E+00 a       473     0    24     1    13
 -1.0696842605275441E+01 a       474     0    24     1    14
  3.5952089830214349E+00 a       475     0    24     1    15
  5.4351562376812597E+00 a       476     0    24     1    16
 -1.3446470412444459E+01 a       477     0    24     1    17
 -5.7910413742094065E+00 a       478     0    24     1    18
 -4.2361013075656482E+00 a       479     0    24     1    19
 -5.5251371145106569E+00 a       480     0    24     1    20
 -1.1930788463663623E-01 a       481     0    25     1     1
 -4.3976842224302554E-01 a       482     0    25     1     2
  9.5236580051138206E-02 a       483     0    25     1     3
  6.4227104089119702E-01 a       484     0    25     1     4
  1.0010580964975210E-01 a       485     0    25     1     5
  2.1900303926689255E-01 a       486     0    25     1     6
  1.4178186213201296E-01 a       487     0    25     1     7
 -8.6183009552584566E-02 a       488     0    25     1     8
 -3.2853921030887800E-01 a       489     0    25     1     9
  3.3891450332806689E-01 a       490     0    25     1    10
  9.4707897515114450E-02 a       491     0    25     1    11
  3.3388419452313467E-02 a       492     0    25     1    12
 -7.1033365681057392E-02 a       493     0    25     1    13
  2.8515070068578730E-01 a       494     0    25     1    14
  7.1801774901220274E-03 a       495     0    25     1    15
 -1.2583016429972557E-02 a       496     0    25     1    16
  1.0844922361844676E+00 a       497     0    25     1    17
  7.9539756921333249E-01 a       498     0    25     1    18
  7.4444322084495806E-02 a       499     0    25     1    19
  1.1448835289601066E-01 a       500     0    25     1    20
 -4.2928017277755176E-01 a       501     0    26     1     1
  1.1771524825558685E-01 a       502     0    26     1     2
  1.0516780648631623E-01 a       503     0    26     1     3
 -5.3624268115256457E-01 a       504     0    26     1     4
 -1.5342661721776287E+00 a       505     0    26     1     5
 -1.6078325055106449E-01 a       506     0    26     1     6
  1.3976566281476153E+00 a       507     0    26     1     7
  9.1558143405105241E-01 a       508     0    26     1     8
  1.1348999078266367E-01 a       509     0    26     1     9
 -6.0244980892925204E-01 a       510     0    26     1    10
  1.1997673668702194E-01 a       511     0    26     1    11
  3.5971018841779068E-01 a       512     0    26     1    12
  1.3450984380888997E-01 a       513     0    26     1    13
 -4.6230899345318203E-02 a       514     0    26     1    14
 -2.5542459200907441E-01 a       515     0    26     1    15
  3.6188649025845049E-01 a       516     0    26     1    16
  3.5579856914278235E-01 a       517     0    26     1    17
 -5.2029312503387222E-02 a       518     0    26     1    18
 -1.2916069196707849E-01 a       519     0    26     1    19
  2.8279729467023673E-01 a       520     0    26     1    20
  3.6678298717550528E+00 a       521     0    27     1     1
 -2.5779283428291473E+00 a       522     0    27     1     2
  1.0343459543787097E+00 a       523     0    27     1     3
  8.9742626154103067E-01 a       524     0    27     1     4
 -1.3263669822624082E+00 a       525     0    27     1     5
 -1.5293519764867840E+00 a       526     0    27     1     6
 -4.1667225163455868E+00 a       527     0    27     1     7
 -4.4507643236254237E+00 a       528     0    27     1     8
 -2.1929161927395904E+00 a       529     0    27     1     9
  4.4639852888364189E+00 a       530     0    27     1    10
  1.3232868410964205E+00 a       531     0    27     1    11
 -1.5977944704566696E+00 a       532     0    27     1    12
  2.5194534917150793E+00 a       533     0    27     1    13
  1.0813067916493420E+00 a       534     0    27     1    14
  6.4119538777530738E-01 a       535     0    27     1    15
 -3.0342602987105138E+00 a       536     0    27     1    16
 -4.5126257455875898E+00 a       537     0    27     1    17
 -8.9476651790925843E-01 a       538     0    27     1    18
  1.1312903932514222E+00 a       539     0    27     1    19
  3.8163624839738308E-01 a       540     0    27     1    20
 -3.6006305626510743E-01 a       541     0    28     1     1
  1.4102254215842049E+00 a       542     0    28     1     2
 -5.4429674269450534E-01 a       543     0    28     1     3
  1.3136560178114073E-01 a       544     0    28     1     4
  1.4597381214126978E-01 a       545     0    28     1     5
  1.3320857875941061E-02 a       546     0    28     1     6
  8.8780505341836402E-01 a       547     0    28     1     7
  4.8824022122348409E-01 a       548     0    28     1     8
 -1.5815670695975698E-01 a       549     0    28     1     9
 -2.3331915005607242E+00 a       550     0    28     1    10
 -1.3817276123772551E-01 a       551     0    28     1    11
  1.7643101797092744E+00 a       552     0    28     1    12
  8.7484185537968856E-02 a       553     0    28     1    13
  1.2969110347537163E+00 a       554     0    28     1    14
 -5.6023388612721892E-01 a       555     0    28     1    15
 -1.7879470331900629E-01 a       556     0    28     1    16
  2.6733130466650457E-01 a       557     0    28     1    17
  7.1452468111575018E-02 a       558     0    28     1    18
 -4.7324085742480243E-01 a       559     0    28     1    19
 -1.0197838617303936E+00 a       560     0    28     1    20
  1.1558953624009806E-01 a       561     0    29     1     1
  4.2312021712412481E-02 a       562     0    29     1     2
 -2.5723389960304383E-01 a       563     0    29     1     3
 -2.8975365885644971E-01 a       564     0    29     1     4
 -1.0404456248600617E-01 a       565     0    29     1     5
 -1.8954285145319591E-01 a       566     0    29     1     6
 -1.8028354405307537E-01 a       567     0    29     1     7
  9.4439523096646133E-02 a       568     0    29     1     8
 -1.8288022881002144E-01 a       569     0    29     1     9
  3.3337171291895742E-02 a       570     0    29     1    10
 -3.4943931696781769E-02 a       571     0    29     1    11
  3.7934472151810444E-01 a       572     0    29     1    12
 -2.9956510387564700E-01 a       573     0    29     1    13
  2.3960768015855732E-01 a       574     0    29     1    14
 -8.7577858788517912E-02 a       575     0    29     1    15
 -1.7213920245035047E-01 a       576     0    29     1    16
 -2.9396578077296487E-01 a       577     0    29     1    17
 -4.3940566523387420E-01 a       578     0    29     1    18
 -1.4664116860714088E-01 a       579     0    29     1    19
 -1.8553273610785462E-02 a       580     0    29     1    20
 -2.0660246743017634E+00 a       581     0    30     1     1
  1.1873259694544385E+00 a       582     0    30     1     2
  7.3936474520089257E-01 a       583     0    30     1     3
 -9.8148305768495614E-01 a       584     0    30     1     4
 -1.0123121191929924E-01 a       585     0    30     1     5
  1.8190247287351817E+00 a       586     0    30     1     6
  1.9731089893284737E+00 a       587     0    30     1     7
  3.0553571957304027E-01 a       588     0    30     1     8
  8.9956368033364287E-01 a       589     0    30     1     9
 -3.1392847239109717E-01 a       590     0    30     1    10
 -5.2320961447282022E-01 a       591     0    30     1    11
  3.9753817112913270E-01 a       592     0    30     1    12
 -1.5659835424866060E+00 a       593     0    30     1    13
  1.3725042057496717E+00 a       594     0    30     1    14
  1.2555088446022983E-01 a       595     0    30     1    15
  7.9210247683703527E-01 a       596     0    30     1    16
  1.7717067609938324E+00 a       597     0    30     1    17
 -1.4560461762086319E-01 a       598     0    30     1    18
  1.5841320675156836E-01 a       599     0    30     1    19
  1.5331324966424640E+00 a       600     0    30     1    20
  4.5382098092333765E+00 a       601     0    31     1     1
 -3.3174236386374862E+00 a       602     0    31     1     2
 -4.9561817487718134E+00 a       603     0    31     1     3
 -9.9135176146996973E-01 a       604     0    31     1     4
 -2.2593224699821968E+00 a       605     0    31     1     5
 -9.2429394258963260E-01 a       606     0    31     1     6
 -1.0228363077820608E+01 a       607     0    31     1     7
  3.0675138824478210E+00 a       608     0    31     1     8
 -2.4518208754810829E+00 a       609     0    31     1     9
  6.9469843294628024E+00 a       610     0    31     1    10
  5.0197645096933641E-01 a       611     0    31     1    11
 -1.1118436289458098E+00 a       612     0    31     1    12
  3.1538226444609196E-01 a       613     0    31     1    13
 -8.4653408742718330E+00 a       614     0    31     1    14
  5.6595055900172211E+00 a       615     0    31     1    15
 -5.3763898402251566E+00 a       616     0    31     1    16
 -9.0788248076891325E+00 a       617     0    31     1    17
 -2.1334243636217134E+00 a       618     0    31     1    18
 -6.5907598555795674E+00 a       619     0    31     1    19
 -1.2883400052163319E+00 a       620     0    31     1    20
 -5.0819328000100517E-01 a       621     0    32     1     1
 -5.2334617425594909E-01 a       622     0    32     1     2
 -5.0361856458720122E-01 a       623     0    32     1     3
 -6.0409195837475571E-01 a       624     0    32     1     4
 -5.0336857106224220E-01 a       625     0    32     1     5
  8.0938555702978399E-01 a       626     0    32     1     6
 -4.3216649563593046E-01 a       627     0    32     1     7
 -4.8996657093968493E-01 a       628     0    32     1     8
 -1.0752539487623485E+00 a       629     0    32     1     9
 -6.0273678744799630E-01 a       630     0    32     1    10
 -8.4857383011175458E-01 a       631     0    32     1    11
 -1.1231077391465198E+00 a       632     0    32     1    12
  4.4097458025387065E-01 a       633     0    32     1    13
 -3.7727751914659657E-02 a       634     0    32     1    14
 -3.1609347309915159E-02 a       635     0    32     1    15
  2.2075123753356924E-02 a       636     0    32     1    16
  6.7709936807606041E-01 a       637     0    32     1    17
 -8.7164719717839267E-01 a       638     0    32     1    18
  6.6622572819598644E-02 a       639     0    32     1    19
 -7.3869264905528609E-01 a       640     0    32     1    20
  4.0145978251167946E+00 a       641     0    33     1     1
 -1.3903851664662354E+00 a       642     0    33     1     2
 -3.4841488042338149E+00 a       643     0    33     1     3
 -4.1161586562570457E-01 a       644     0    33     1     4
 -1.1533509586990793E+00 a       645     0    33     1     5
 -1.6573494818716761E+00 a       646     0    33     1     6
 -3.6427613451400567E+00 a       647     0    33     1     7
 -1.2500260935891738E+00 a       648     0    33     1     8
 -1.0731186893215743E+00 a       649     0    33     1     9
 -6.4295947438283652E-01 a       650     0    33     1    10
 -2.2784776012602692E+00 a       651     0    33     1    11
 -1.9614759660520877E+00 a       652     0    33     1    12
  4.5540859170745651E-01 a       653     0    33     1    13
 -2.5969287370630054E+00 a       654     0    33     1    14
  2.4715610321572021E+00 a       655     0    33     1    15
  3.6066973640006958E+00 a       656     0    33     1    16
 -3.1285934619250195E+00 a       657     0    33     1    17
 -4.0828603436642368E+00 a       658     0    33     1    18
 -2.0895983758286656E+00 a       659     0    33     1    19
 -3.2896745419593665E+00 a       660     0    33     1    20
 -1.9243119406260245E-01 a       661     0    34     1     1
 -6.6523195335897511E-01 a       662     0    34     1     2
 -1.0932427942669798E+00 a       663     0    34     1     3
 -6.9381988177556686E-01 a       664     0    34     1     4
 -9.3290002335271613E-02 a       665     0    34     1     5
 -7.2722365724662685E-01 a       666     0    34     1     6
 -9.2857874002156837E-01 a       667     0    34     1     7
  2.1007851349792997E-01 a       668     0    34     1     8
  1.2663700857197893E-01 a       669     0    34     1     9
 -4.8845934978561822E-01 a       670     0    34     1    10
 -8.0993707940105653E-01 a       671     0    34     1    11
 -8.0042751289223268E-01 a       672     0    34     1    12
 -6.3507620667725556E-02 a       673     0    34     1    13
  3.8096359987489797E-01 a       674     0    34     1    14
 -1.6856545217411667E-01 a       675     0    34     1    15
 -1.9528863692635060E-01 a       676     0    34     1    16
  2.1022154348797417E-01 a       677     0    34     1    17
 -8.6381192282408448E-01 a       678     0    34     1    18
  8.7887015985104913E-02 a       679     0    34     1    19
 -4.7199920477974899E-01 a       680     0    34     1    20
  4.0114005054075774E-01 a       681     0    35     1     1
  1.1202514084118544E+00 a       682     0    35     1     2
  3.4006189145905752E-01 a       683     0    35     1     3
  7.9428681421776270E-01 a       684     0    35     1     4
 -1.1379257354803096E+00 a       685     0    35     1     5
 -6.4767225570095122E-01 a       686     0    35     1     6
 -3.1075675566734353E+00 a       687     0    35     1     7
  3.4036804099008111E-01 a       688     0    35     1     8
  7.7049001441564768E-01 a       689     0    35     1     9
  7.7372439659330250E-01 a       690     0    35     1    10
 -6.1683630499538733E-01 a       691     0    35     1    11
 -1.1463533162356556E+00 a       692     0    35     1    12
  7.6605491911769449E-02 a       693     0    35     1    13
  3.4582121376911351E-01 a       694     0    35     1    14
  1.7802811413484065E+00 a       695     0    35     1    15
 -4.3259278590476147E-01 a       696     0    35     1    16
 -5.3039255771662674E-01 a       697     0    35     1    17
 -8.8827897670732270E-01 a       698     0    35     1    18
  6.1087685357903809E-01 a       699     0    35     1    19
 -1.3585247603431925E+00 a       700     0    35     1    20
  8.9675050201953349E-02 a       701     0    36     1     1
 -5.8136682576222742E-01 a       702     0    36     1     2
 -5.5284719995618525E-01 a       703     0    36     1     3
 -2.6900364478216265E-01 a       704     0    36     1     4
 -6.8749078337269828E-03 a       705     0    36     1     5
 -2.2777682374625968E-01 a       706     0    36     1     6
 -2.3807905789384359E-01 a       707     0    36     1     7
  3.5444271011959044E-01 a       708     0    36     1     8
  2.5328722303084800E-01 a       709     0    36     1     9
 -3.8113051033393304E-02 a       710     0    36     1    10
  6.8260117572926271E-02 a       711     0    36     1    11
  4.6832834426344457E-02 a       712     0    36     1    12
 -1.6063647896868807E-01 a       713     0    36     1    13
  1.6345458444548405E-01 a       714     0    36     1    14
 -4.3368233845705628E-01 a       715     0    36     1    15
 -8.0091065806714143E-02 a       716     0    36     1    16
 -1.1670977304006709E-01 a       717     0    36     1    17
 -1.0857703183160812E+00 a       718     0    36     1    18
  2.6468196061007399E-01 a       719     0    36     1    19
 -4.8915495420226618E-01 a       720     0    36     1    20
  1.3112497413460507E+00 a       721     0    37     1     1
 -3.3240333437131331E+00 a       722     0    37     1     2
 -3.1077032647330709E+00 a       723     0    37     1     3
 -4.0399616061460089E+00 a       724     0    37     1     4
  2.4407446544661324E+00 a       725     0    37     1     5
 -5.3620101829837106E+00 a       726     0    37     1     6
  1.8632099085442111E-02 a       727     0    37     1     7
 -2.7076818621464993E-01 a       728     0    37     1     8
  4.1688579924035123E+00 a       729     0    37     1     9
  6.0903284997976765E+00 a       730     0    37     1    10
 -2.1450672513163571E+00 a       731     0    37     1    11
  3.3873874262222121E+00 a       732     0    37     1    12
 -4.7921704017509716E+00 a       733     0    37     1    13
  1.8103736992534700E+00 a       734     0    37     1    14
  4.8718430507370396E+00 a       735     0    37     1    15
  3.0064013431161931E+00 a       736     0    37     1    16
 -8.7924164274759935E+00 a       737     0    37     1    17
  4.9448064998706833E+00 a       738     0    37     1    18
  8.1559164834446047E+00 a       739     0    37     1    19
  3.7912187986185775E-01 a       740     0    37     1    20
  1.3323130412955986E-01 a       741     0    38     1     1
 -3.7645709054998061E-01 a       742     0    38     1     2
 -3.3077514346121911E-02 a       743     0    38     1     3
 -9.5040595439844944E-01 a       744     0    38     1     4
 -1.3632070127912181E+00 a       745     0    38     1     5
  4.8524155213387453E-02 a       746     0    38     1     6
 -1.4694448824682074E+00 a       747     0    38     1     7
  8.6156740277240818E-01 a       748     0    38     1     8
 -1.0875785108141402E-01 a       749     0    38     1     9
  3.6387008775938937E-02 a       750     0    38     1    10
  2.9774465254930025E-04 a       751     0    38     1    11
  1.9527626339292065E-01 a       752     0    38     1    12
  3.5484705217520007E-01 a       753     0    38     1    13
 -1.7467864044211873E-01 a       754     0    38     1    14
  1.1567844162016510E+00 a       755     0    38     1    15
 -1.0385520898250116E+00 a       756     0    38     1    16
 -6.2509014252574135E-01 a       757     0    38     1    17
 -5.1120018303678494E-01 a       758     0    38     1    18
 -8.8994047545115307E-01 a       759     0    38     1    19
  3.7125720367622289E-01 a       760     0    38     1    20
 -2.3301424846639724E+00 a       761     0    39     1     1
  3.9686693381155327E+00 a       762     0    39     1     2
 -3.7593132992213349E+00 a       763     0    39     1     3
 -6.7705076870977035E+00 a       764     0    39     1     4
  2.7770875484460102E+00 a       765     0    39     1     5
 -6.7467851789341293E-01 a       766     0    39     1     6
  5.6204322877568718E+00 a       767     0    39     1     7
 -4.6584786365744835E+00 a       768     0    39     1     8
  5.3273368007629989E+00 a       769     0    39     1     9
 -6.1498171148459146E+00 a       770     0    39     1    10
 -6.9757773394645799E+00 a       771     0    39     1    11
 -6.1437768748936969E+00 a       772     0    39     1    12
  1.9141986655705678E+00 a       773     0    39     1    13
 -4.4756069798925946E+00 a       774     0    39     1    14
 -5.4152973200365107E-01 a       775     0    39     1    15
  2.3611550223157605E+00 a       776     0    39     1    16
 -5.0528832146800404E+00 a       777     0    39     1    17
 -6.4938163177257842E+00 a       778     0    39     1    18
 -3.2825328449299520E+00 a       779     0    39     1    19
  1.9696824385823770E+00 a       780     0    39     1    20
 -5.9167966413043063E+00 a       781     0    40     1     1
 -1.2465164499751042E+01 a       782     0    40     1     2
  8.6187060568791711E+00 a       783     0    40     1     3
 -4.0432405018177668E+00 a       784     0    40     1     4
 -4.5863471355085883E+00 a       785     0    40     1     5
  5.8799433962021848E+00 a       786     0    40     1     6
 -1.5683146806021473E+00 a       787     0    40     1     7
 -3.1940142558099178E+00 a       788     0    40     1     8
 -4.1857357234767321E+00 a       789     0    40     1     9
  5.4484830849423229E+00 a       790     0    40     1    10
  3.3869379766794601E+00 a       791     0    40     1    11
  5.5325516074870986E+00 a       792     0    40     1    12
 -2.7483471285352308E+00 a       793     0    40     1    13
  1.0832040617376204E+01 a       794     0    40     1    14
 -2.2475757826632461E+00 a       795     0    40     1    15
 -4.6415369075345465E+00 a       796     0    40     1    16
  1.0686768798472176E+01 a       797     0    40     1    17
  6.2130100204959549E+00 a       798     0    40     1    18
  5.7448207406851584E+00 a       799     0    40     1    19
  6.0929728159608212E+00 a       800     0    40     1    20
 -3.2547879447995807E+00 a       801     0    41     1     1
  1.8881058774709292E+00 a       802     0    41     1     2
 -6.9256367616923065E-01 a       803     0    41     1     3
 -7.9920969529547992E-01 a       804     0    41     1     4
  1.7139250448878967E+00 a       805     0    41     1     5
  1.4070844438661980E+00 a       806     0    41     1     6
  4.3601936885386472E+00 a       807     0    41     1     7
  3.2698997576354452E+00 a       808     0    41     1     8
  1.8964676308460620E+00 a       809     0    41     1     9
 -3.5471155208386662E+00 a       810     0    41     1    10
 -1.5990910915662666E+00 a       811     0    41     1    11
 -3.0359907141706571E-01 a       812     0    41     1    12
 -2.4095477029169818E+00 a       813     0    41     1    13
 -5.4895860918342509E-01 a       814     0    41     1    14
 -4.1679467478545912E-01 a       815     0    41     1    15
  2.7058790091902933E+00 a       816     0    41     1    16
  4.1111284754147741E+00 a       817     0    41     1    17
  1.3495671238253273E+00 a       818     0    41     1    18
 -1.3088423377610505E+00 a       819     0    41     1    19
 -7.1766364792908199E-01 a       820     0    41     1    20
  6.0721131368251591E-01 a       821     0    42     1     1
 -2.1619870596536623E+00 a       822     0    42     1     2
  7.2910864214253898E-02 a       823     0    42     1     3
  4.7796878007088572E-01 a       824     0    42     1     4
  9.0292288594168701E-01 a       825     0    42     1     5
  7.3471208751830652E-01 a       826     0    42     1     6
 -2.6816589463453316E-01 a       827     0    42     1     7
 -1.2273137577803490E+00 a       828     0    42     1     8
 -1.2495702718391402E+00 a       829     0    42     1     9
  1.6799592195882824E+00 a       830     0    42     1    10
 -1.5948635542761694E-01 a       831     0    42     1    11
  3.7302298793094280E-01 a       832     0    42     1    12
 -9.0162869267181001E-01 a       833     0    42     1    13
  1.0697764633740998E+00 a       834     0    42     1    14
 -7.1339424398292750E-01 a       835     0    42     1    15
  1.2064585512491069E-01 a       836     0    42     1    16
  1.5962887792236748E+00 a       837     0    42     1    17
  5.9961305815250898E-01 a       838     0    42     1    18
  1.0311496577419754E+00 a       839     0    42     1    19
 -3.4273593035128147E-01 a       840     0    42     1    20
 -2.3001410835510763E+00 a       841     0    43     1     1
  3.2669993874838861E+00 a       842     0    43     1     2
  3.6817945469743638E-03 a       843     0    43     1     3
  1.8732095774241322E-01 a       844     0    43     1     4
  1.4960328263183722E+00 a       845     0    43     1     5
 -2.3524303172599197E+00 a       846     0    43     1     6
  4.9214601729260350E+00 a       847     0    43     1     7
  1.0481299186308997E+00 a       848     0    43     1     8
  2.1402621483348563E+00 a       849     0    43     1     9
 -2.0651034146629712E+00 a       850     0    43     1    10
  1.8779922026203841E+00 a       851     0    43     1    11
  1.8654236416856944E+00 a       852     0    43     1    12
 -3.3126977936423019E-01 a       853     0    43     1    13
  3.1249231409843876E+00 a       854     0    43     1    14
 -4.6279336519442609E+00 a       855     0    43     1    15
  6.1245193684968111E+00 a       856     0    43     1    16
  4.4297144484717768E+00 a       857     0    43     1    17
  6.2292377046408987E-01 a       858     0    43     1    18
  2.8285343156882150E+00 a       859     0    43     1    19
 -3.5551619776181327E+00 a       860     0    43     1    20
  2.1697006412120809E-01 a       861     0    44     1     1
 -4.9573792154937008E-01 a       862     0    44     1     2
  8.0744903031596205E-02 a       863     0    44     1     3
  2.2115192568353145E-01 a       864     0    44     1     4
 -2.9645775659044769E-02 a       865     0    44     1     5
  2.4901865210720245E-01 a       866     0    44     1     6
  1.6391518835339053E-01 a       867     0    44     1     7
 -5.9984417010516877E-01 a       868     0    44     1     8
 -2.1786648768768266E-01 a       869     0    44     1     9
  5.7553392826698879E-01 a       870     0    44     1    10
 -1.1476514121178814E-01 a       871     0    44     1    11
  2.6840210570695772E-01 a       872     0    44     1    12
 -2.9137415783956139E-01 a       873     0    44     1    13
  4.8577137541979643E-01 a       874     0    44     1    14
 -3.7911564132080872E-01 a       875     0    44     1    15
 -1.4562268579553403E-01 a       876     0    44     1    16
  1.9945203125311523E-01 a       877     0    44     1    17
 -3.0362490466743758E-01 a       878     0    44     1    18
  4.6191947900621116E-01 a       879     0    44     1    19
 -1.0428094743097238E-01 a       880     0    44     1    20
 -9.1432352452931365E-01 a       881     0    45     1     1
 -5.8372540583293575E-01 a       882     0    45     1     2
  1.4524282881805206E-01 a       883     0    45     1     3
  2.2388185719221157E-01 a       884     0    45     1     4
  3.6254052119284430E-01 a       885     0    45     1     5
 -1.9190147116913839E-01 a       886     0    45     1     6
  6.7197535042881962E-01 a       887     0    45     1     7
  1.5211625033128418E+00 a       888     0    45     1     8
  6.8027171409181486E-01 a       889     0    45     1     9
  8.4315204901054694E-02 a       890     0    45     1    10
  1.1030255222727250E+00 a       891     0    45     1    11
  1.3020919480452828E+00 a       892     0    45     1    12
 -5.9908210594996891E-01 a       893     0    45     1    13
  1.5316673627108082E-01 a       894     0    45     1    14
 -1.2243738002995213E+00 a       895     0    45     1    15
  2.1495131885702815E-01 a       896     0    45     1    16
  7.2481702746618915E-01 a       897     0    45     1    17
  9.1833110041075539E-01 a       898     0    45     1    18
  2.9686387405834835E-01 a       899     0    45     1    19
  2.8875772095225904E-01 a       900     0    45     1    20
  2.3594661651066129E-01 a       901     0    46     1     1
  2.3862791479872866E-01 a       902     0    46     1     2
  6.5640834362649125E-01 a       903     0    46     1     3
  2.4462040559497805E-01 a       904     0    46     1     4
 -2.1662445483538809E-01 a       905     0    46     1     5
  5.9511790858968527E-01 a       906     0    46     1     6
  3.7246308750301488E-01 a       907     0    46     1     7
 -4.3406457910998331E-01 a       908     0    46     1     8
 -4.0119121760978010E-01 a       909     0    46     1     9
  1.7428722921272022E-01 a       910     0    46     1    10
  2.3252306866260394E-01 a       911     0    46     1    11
  3.4637454234035692E-01 a       912     0    46     1    12
 -3.2639217319141528E-01 a       913     0    46     1    13
  2.4249628803381779E-01 a       914     0    46     1    14
 -2.2709776211189123E-01 a       915     0    46     1    15
  8.0155829202230314E-02 a       916     0    46     1    16
 -1.8839298510078381E-01 a       917     0    46     1    17
 -2.6087963332819269E-01 a       918     0    46     1    18
  3.8633088046625241E-02 a       919     0    46     1    19
 -1.3617164818049096E-01 a       920     0    46     1    20
  2.9603086466306489E-01 a       921     0    47     1     1
  3.7325261147221539E-01 a       922     0    47     1     2
  6.6190712832831633E-01 a       923     0    47     1     3
  5.8694135816691695E-02 a       924     0    47     1     4
 -2.1710227145130145E-01 a       925     0    47     1     5
  2.8034449507622378E-01 a       926     0    47     1     6
  1.5983639900448160E-01 a       927     0    47     1     7
 -8.2822828536429527E-01 a       928     0    47     1     8
 -4.0681359546415469E-01 a       929     0    47     1     9
 -2.5933096565093877E-01 a       930     0    47     1    10
 -8.6499544785128141E-03 a       931     0    47     1    11
  3.6433727393532477E-02 a       932     0    47     1    12
 -7.1279711983596605E-01 a       933     0    47     1    13
 -2.5405414995528081E-01 a       934     0    47     1    14
  3.2917779412746803E-02 a       935     0    47     1    15
 -3.6673341244171431E-02 a       936     0    47     1    16
  6.7528537871378164E-02 a       937     0    47     1    17
  4.8606178242890924E-01 a       938     0    47     1    18
 -1.4349165323836832E-01 a       939     0    47     1    19
 -3.2149901871196046E-03 a       940     0    47     1    20
  6.3753404573901939E-01 a       941     0    48     1     1
 -1.1058758901005743E+00 a       942     0    48     1     2
 -5.7621962059502529E-01 a       943     0    48     1     3
  2.9125041745508709E+00 a       944     0    48     1     4
  2.7550876573170475E+00 a       945     0    48     1     5
  3.0463719461925289E+00 a       946     0    48     1     6
  3.9118877444400284E+00 a       947     0    48     1     7
 -2.0884742600550834E+00 a       948     0    48     1     8
 -9.5495788026574102E-01 a       949     0    48     1     9
  2.5579075290213531E+00 a       950     0    48     1    10
 -1.2274031276364066E+00 a       951     0    48     1    11
  1.6080932194685742E-02 a       952     0    48     1    12
 -7.3632549068989583E-01 a       953     0    48     1    13
 -3.1014607150127773E+00 a       954     0    48     1    14
 -1.6671881667568569E+00 a       955     0    48     1    15
 -1.5073750340897196E+00 a       956     0    48     1    16
 -1.2672584073787516E+00 a       957     0    48     1    17
  2.3859749174818970E-01 a       958     0    48     1    18
 -1.0842309350696137E-01 a       959     0    48     1    19
  3.6608680591463485E+00 a       960     0    48     1    20
 -3.8370809875341576E-02 a       961     0    49     1     1
 -3.8678074310703265E+00 a       962     0    49     1     2
  2.4158890556739016E-01 a       963     0    49     1     3
  2.4448155964698310E+00 a       964     0    49     1     4
  1.4941275006729646E+00 a       965     0    49     1     5
  3.4182081061630383E+00 a       966     0    49     1     6
  3.7151199278366818E+00 a       967     0    49     1     7
 -2.2553514325967070E+00 a       968     0    49     1     8
 -1.3494061154273147E+00 a       969     0    49     1     9
  1.8895280355163417E+00 a       970     0    49     1    10
 -2.5975493753003107E+00 a       971     0    49     1    11
  1.9587420874443897E-03 a       972     0    49     1    12
 -9.3430881765268148E-01 a       973     0    49     1    13
 -6.7857153043650573E+00 a       974     0    49     1    14
 -2.5545170048617538E-01 a       975     0    49     1    15
  4.6555553981666337E-01 a       976     0    49     1    16
 -2.0749595449253855E+00 a       977     0    49     1    17
 -1.5574150095230042E+00 a       978     0    49     1    18
  3.7875312380362364E-01 a       979     0    49     1    19
  3.7307167409194957E+00 a       980     0    49     1    20
  1.8996588971855919E+00 a       981     0    50     1     1
 -7.7721878186624087E+00 a       982     0    50     1     2
 -2.3923740513852554E+00 a       983     0    50     1     3
  7.9240523922544451E-02 a       984     0    50     1     4
  4.2796988162510958E+00 a       985     0    50     1     5
  1.9321098844372580E+00 a       986     0    50     1     6
  3.1127350498097335E+00 a       987     0    50     1     7
  6.8737242924658448E-01 a       988     0    50     1     8
 -3.9285966132064365E+00 a       989     0    50     1     9
 -1.4067423977215603E+00 a       990     0    50     1    10
 -2.0642425312579191E+00 a       991     0    50     1    11
 -4.6121339578854648E-01 a       992     0    50     1    12
 -7.3936631027353190E+00 a       993     0    50     1    13
 -1.9275356532383985E+00 a       994     0    50     1    14
  1.4027619669036253E+00 a       995     0    50     1    15
  3.2984319139194662E+00 a       996     0    50     1    16
  1.6600324349666218E-01 a       997     0    50     1    17
 -2.7259710362973415E+00 a       998     0    50     1    18
  1.7057100979205013E+00 a       999     0    50     1    19
 -1.1671541802940328E+00 a      1000     0    50     1    20
 -1.2331595593077112E+00 a      1001     0    51     1     1
 -1.4873702522687753E+00 a      1002     0    51     1     2
 -5.7757337102065929E+00 a      1003     0    51     1     3
  1.2401369599164640E+00 a      1004     0    51     1     4
  6.7242330612872721E+00 a      1005     0    51     1     5
  4.5426202673568188E+00 a      1006     0    51     1     6
  1.6333397022547569E+00 a      1007     0    51     1     7
  3.0301234963384380E+00 a      1008     0    51     1     8
 -1.3953433558308095E+00 a      1009     0    51     1     9
 -1.8129167677647013E+00 a      1010     0    51     1    10
 -6.8932751375099564E+00 a      1011     0    51     1    11
  1.7238328981110307E+00 a      1012     0    51     1    12
 -5.7689130093748187E+00 a      1013     0    51     1    13
 -2.8330812585140435E+00 a      1014     0    51     1    14
  3.7295109779497615E+00 a      1015     0    51     1    15
  1.6244723979728053E+00 a      1016     0    51     1    16
  8.2764535280407237E-01 a      1017     0    51     1    17
  5.5541393959536811E-01 a      1018     0    51     1    18
 -1.6430167431179958E+00 a      1019     0    51     1    19
 -1.9818176704502706E+00 a      1020     0    51     1    20
  2.7388934842227401E+00 a      1021     0    52     1     1
 -7.4294698358070443E-01 a      1022     0    52     1     2
 -2.2226804095876269E+00 a      1023     0    52     1     3
  1.6581726825668828E+00 a      1024     0    52     1     4
  3.9560029734551385E+00 a      1025     0    52     1     5
  6.8727132837422422E-01 a      1026     0    52     1     6
  9.6542546777200722E-01 a      1027     0    52     1     7
  8.0946643015069555E-02 a      1028     0    52     1     8
 -3.0526778001066085E-01 a      1029     0    52     1     9
  6.1577372100634686E-01 a      1030     0    52     1    10
 -4.0177463326689411E+00 a      1031     0    52     1    11
  5.1892055978525187E-01 a      1032     0    52     1    12
 -1.4151461846969919E+00 a      1033     0    52     1    13
 -1.8549675625064757E+00 a      1034     0    52     1    14
  1.3515754119149945E+00 a      1035     0    52     1    15
 -2.0130913806678215E+00 a      1036     0    52     1    16
 -1.2392943057168802E+00 a      1037     0    52     1    17
  3.0075678046174753E-02 a      1038     0    52     1    18
 -1.1216288646902696E-01 a      1039     0    52     1    19
  9.3188839101334775E-01 a      1040     0    52     1    20
  5.4244107780668949E-01 a      1041     0    53     1     1
 -7.0438057170603106E+00 a      1042     0    53     1     2
  8.5250346800319743E-01 a      1043     0    53     1     3
  3.7987020100496820E+00 a      1044     0    53     1     4
  3.9022814743830397E-01 a      1045     0    53     1     5
  3.4338529253715118E+00 a      1046     0    53     1     6
  1.5340976859024162E+00 a      1047     0    53     1     7
 -2.0163401110214525E+00 a      1048     0    53     1     8
  1.0777645209433719E+00 a      1049     0    53     1     9
  1.3337312711418806E-01 a      1050     0    53     1    10
 -2.8354064730443738E+00 a      1051     0    53     1    11
 -1.2906283260676971E-01 a      1052     0    53     1    12
 -9.3510825578883544E-02 a      1053     0    53     1    13
 -6.0997587464883702E+00 a      1054     0    53     1    14
  1.9923793374109966E-01 a      1055     0    53     1    15
 -2.9696494995765716E+00 a      1056     0    53     1    16
 -1.4323492483552507E+00 a      1057     0    53     1    17
  8.4199937907829880E-01 a      1058     0    53     1    18
  2.4277238769776807E-01 a      1059     0    53     1    19
  1.1062917294864492E+00 a      1060     0    53     1    20
 -4.5184249736114603E+00 a      1061     0    54     1     1
  3.3075360324864391E+00 a      1062     0    54     1     2
  2.0000689654260277E+00 a      1063     0    54     1     3
 -2.7643596212339094E+00 a      1064     0    54     1     4
  1.0203268048163268E+00 a      1065     0    54     1     5
  2.3355610897728991E+00 a      1066     0    54     1     6
 -1.3627924951080821E+00 a      1067     0    54     1     7
  5.9857971151243450E-01 a      1068     0    54     1     8
 -1.1548857279044271E+00 a      1069     0    54     1     9
 -1.9267374895539977E+00 a      1070     0    54     1    10
  3.9329583993244772E+00 a      1071     0    54     1    11
 -2.3239204505761335E+00 a      1072     0    54     1    12
  3.8221753245066110E+00 a      1073     0    54     1    13
  2.4857808838584181E+00 a      1074     0    54     1    14
  8.7908846056214152E-01 a      1075     0    54     1    15
 -6.3570040022221178E-02 a      1076     0    54     1    16
 -3.0161844772909943E+00 a      1077     0    54     1    17
 -6.1338432817747734E-01 a      1078     0    54     1    18
  1.4630044240742826E+00 a      1079     0    54     1    19
 -6.6469079280777299E-01 a      1080     0    54     1    20
 -1.4122588547121711E+00 a      1081     0    55     1     1
  1.2251040982797759E-01 a      1082     0    55     1     2
  3.2548891255976615E+00 a      1083     0    55     1     3
 -2.7697220312020883E-02 a      1084     0    55     1     4
 -4.4639993057022231E-01 a      1085     0    55     1     5
 -3.1647621829257483E-01 a      1086     0    55     1     6
 -4.4071311486278780E-01 a      1087     0    55     1     7
  3.9889359008377281E+00 a      1088     0    55     1     8
 -1.8179103220182837E+00 a      1089     0    55     1     9
  4.5521188103454984E+00 a      1090     0    55     1    10
  4.0190158253796362E+00 a      1091     0    55     1    11
  4.1398390084569954E+00 a      1092     0    55     1    12
  1.6442583135081592E+00 a      1093     0    55     1    13
 -3.6643271345023831E+00 a      1094     0    55     1    14
  9.6706514506381291E-01 a      1095     0    55     1    15
 -1.1539226204865145E+00 a      1096     0    55     1    16
  8.3622684806569736E-01 a      1097     0    55     1    17
  3.6644560422365102E-01 a      1098     0    55     1    18
 -3.8500511808220561E-01 a      1099     0    55     1    19
  7.7994145240916257E-01 a      1100     0    55     1    20
  1.5753639215338173E+00 a      1101     0    56     1     1
 -2.1415005958872659E+00 a      1102     0    56     1     2
 -5.9111358433487793E-01 a      1103     0    56     1     3
 -1.0768815392407773E+00 a      1104     0    56     1     4
  1.2820085258028908E+00 a      1105     0    56     1     5
  3.9395960359065080E-01 a      1106     0    56     1     6
  6.8155613892764422E-01 a      1107     0    56     1     7
  1.4033668681499156E+00 a      1108     0    56     1     8
 -1.0436121842969417E+00 a      1109     0    56     1     9
 -1.0557268639098192E+00 a      1110     0    56     1    10
 -1.4817789332981421E-01 a      1111     0    56     1    11
 -8.9750103080295882E-03 a      1112     0    56     1    12
 -2.4488449752014447E+00 a      1113     0    56     1    13
  8.9105258236141471E-01 a      1114     0    56     1    14
  1.5617970848807101E+00 a      1115     0    56     1    15
  2.6968618678665974E+00 a      1116     0    56     1    16
  6.9799724291838935E-02 a      1117     0    56     1    17
 -2.2999020616343349E+00 a      1118     0    56     1    18
  6.3891458305463777E-01 a      1119     0    56     1    19
 -9.0307079306051341E-01 a      1120     0    56     1    20
 -4.5561149144981677E-01 a      1121     0    57     1     1
 -7.3211201924806546E-01 a      1122     0    57     1     2
 -4.8242185916128051E+00 a      1123     0    57     1     3
  6.0711231796273879E-01 a      1124     0    57     1     4
  4.0488386980207709E+00 a      1125     0    57     1     5
  2.2361908088714926E+00 a      1126     0    57     1     6
  3.9122329170722092E-01 a      1127     0    57     1     7
  2.4264558770345275E+00 a      1128     0    57     1     8
 -2.8446881675695573E-01 a      1129     0    57     1     9
 -1.4686958268799668E+00 a      1130     0    57     1    10
 -3.7997158371344097E+00 a      1131     0    57     1    11
  1.5771255466085812E+00 a      1132     0    57     1    12
 -3.5346654488607294E+00 a      1133     0    57     1    13
 -1.1049938271723903E+00 a      1134     0    57     1    14
  2.0886679276688533E+00 a      1135     0    57     1    15
  6.9745963688977708E-01 a      1136     0    57     1    16
  3.9424799169436814E-01 a      1137     0    57     1    17
  1.8906044922419843E-01 a      1138     0    57     1    18
 -1.6640853942900888E+00 a      1139     0    57     1    19
 -1.4710982858769590E+00 a      1140     0    57     1    20
  1.9123465856350004E+00 a      1141     0    58     1     1
  2.1002919397536965E-01 a      1142     0    58     1     2
 -1.8294285871752296E+00 a      1143     0    58     1     3
  6.5774764420420617E-01 a      1144     0    58     1     4
  3.3330959977373809E+00 a      1145     0    58     1     5
 -2.9931005841601330E-02 a      1146     0    58     1     6
  1.0675726902572633E+00 a      1147     0    58     1     7
  2.3749262338037209E-02 a      1148     0    58     1     8
 -2.7228811221162580E-02 a      1149     0    58     1     9
  5.4599773983859415E-02 a      1150     0    58     1    10
 -3.2558904409203184E+00 a      1151     0    58     1    11
  5.9082408056392388E-01 a      1152     0    58     1    12
 -8.6365453085986921E-01 a      1153     0    58     1    13
 -7.1180840251510957E-01 a      1154     0    58     1    14
  8.6598548108981777E-01 a      1155     0    58     1    15
 -1.4471589474768820E+00 a      1156     0    58     1    16
 -8.9097109286333831E-01 a      1157     0    58     1    17
 -1.0687825211669419E-01 a      1158     0    58     1    18
 -3.1316494074463623E-02 a      1159     0    58     1    19
  7.8904959749597409E-02 a      1160     0    58     1    20
 -2.2332084080043630E+00 a      1161     0    59     1     1
  5.4995157079462498E-01 a      1162     0    59     1     2
  1.0732421714131810E+00 a      1163     0    59     1     3
 -1.1009379939611990E+00 a      1164     0    59     1     4
  1.2534513225493984E+00 a      1165     0    59     1     5
  1.1279354180215717E+00 a      1166     0    59     1     6
 -9.0423517887229063E-02 a      1167     0    59     1     7
 -4.8826295890624583E-01 a      1168     0    59     1     8
 -9.3303336886960397E-01 a      1169     0    59     1     9
 -5.4242447357374823E-01 a      1170     0    59     1    10
  1.4958316215742122E+00 a      1171     0    59     1    11
 -3.4553449003656964E+00 a      1172     0    59     1    12
  2.4534187514271397E+00 a      1173     0    59     1    13
  4.0324796287241754E-02 a      1174     0    59     1    14
  2.0600311836705129E-01 a      1175     0    59     1    15
 -7.2052350566889389E-01 a      1176     0    59     1    16
 -9.2209513123900200E-01 a      1177     0    59     1    17
 -3.6137390046564644E-01 a      1178     0    59     1    18
  1.4896084886388732E+00 a      1179     0    59     1    19
 -6.2360417982731009E-01 a      1180     0    59     1    20
 -7.3540918954505985E-01 a      1181     0    60     1     1
  5.0368009214777896E+00 a      1182     0    60     1     2
  6.6697104433844157E-01 a      1183     0    60     1     3
 -2.4664887607988422E+00 a      1184     0    60     1     4
 -2.1056575436660285E+00 a      1185     0    60     1     5
 -2.5717937366716273E+00 a      1186     0    60     1     6
 -5.3304566337479031E-01 a      1187     0    60     1     7
  6.9097239323674564E-01 a      1188     0    60     1     8
  3.7366608708138388E-01 a      1189     0    60     1     9
 -6.7133435847012102E-01 a      1190     0    60     1    10
  5.1368935972158516E+00 a      1191     0    60     1    11
  1.4923397745115582E-01 a      1192     0    60     1    12
  2.0810029363375349E+00 a      1193     0    60     1    13
  5.3191058237145183E+00 a      1194     0    60     1    14
 -4.6614172096073053E-01 a      1195     0    60     1    15
 -8.7385055831088321E-01 a      1196     0    60     1    16
  1.6721297461570095E+00 a      1197     0    60     1    17
 -4.6464739438288621E-01 a      1198     0    60     1    18
 -4.6038080369750661E-01 a      1199     0    60     1    19
 -1.9307544030600796E+00 a      1200     0    60     1    20
 -9.0544968676685811E-01 a      1201     0    61     1     1
  6.6782804907477793E+00 a      1202     0    61     1     2
  2.1223866435346297E+00 a      1203     0    61     1     3
 -4.1306999825588413E+00 a      1204     0    61     1     4
 -3.9842149744851318E+00 a      1205     0    61     1     5
 -4.6136612829884891E+00 a      1206     0    61     1     6
 -2.9247306330959666E+00 a      1207     0    61     1     7
  7.5644223783560427E-01 a      1208     0    61     1     8
 -2.2797650979927042E-01 a      1209     0    61     1     9
 -1.4605278359052274E+00 a      1210     0    61     1    10
  5.1624087152002769E+00 a      1211     0    61     1    11
  1.2534265658995000E-01 a      1212     0    61     1    12
  2.8993078727373058E+00 a      1213     0    61     1    13
  5.9318617701826497E+00 a      1214     0    61     1    14
  8.1884029425551577E-02 a      1215     0    61     1    15
  1.8575370779663942E+00 a      1216     0    61     1    16
  2.4867928398659180E+00 a      1217     0    61     1    17
 -1.0945543650553793E+00 a      1218     0    61     1    18
 -1.9629099271071676E-02 a      1219     0    61     1    19
 -3.0297404824271421E+00 a      1220     0    61     1    20
 -1.9374804385870326E+00 a      1221     0    62     1     1
  9.7890097111406700E+00 a      1222     0    62     1     2
  4.0102247257329395E+00 a      1223     0    62     1     3
  8.9661402909868224E-02 a      1224     0    62     1     4
 -3.8460125751835030E+00 a      1225     0    62     1     5
 -1.5893334476170868E+00 a      1226     0    62     1     6
 -4.5402973441442036E+00 a      1227     0    62     1     7
  9.8790433386806220E-01 a      1228     0    62     1     8
  5.4969889608237841E+00 a      1229     0    62     1     9
  3.2508065445220353E+00 a      1230     0    62     1    10
  2.1418115915072269E+00 a      1231     0    62     1    11
  1.1876921560366986E+00 a      1232     0    62     1    12
  1.3510160929658865E+01 a      1233     0    62     1    13
  6.3032687288507605E-01 a      1234     0    62     1    14
 -3.1830558021092310E+00 a      1235     0    62     1    15
 -4.8549680330533880E+00 a      1236     0    62     1    16
 -1.1218138477541848E+00 a      1237     0    62     1    17
  7.6011851357383478E+00 a      1238     0    62     1    18
 -3.5120955980950992E+00 a      1239     0    62     1    19
  2.5231693931315364E+00 a      1240     0    62     1    20
  7.7401511581732152E-01 a      1241     0    63     1     1
  9.6982211775933591E-01 a      1242     0    63     1     2
  2.3858463488592219E-01 a      1243     0    63     1     3
 -1.7645885689099583E+00 a      1244     0    63     1     4
 -7.0168423584830828E+00 a      1245     0    63     1     5
 -6.4288847987232263E+00 a      1246     0    63     1     6
 -5.4555219704126507E+00 a      1247     0    63     1     7
  1.1274068545404732E+00 a      1248     0    63     1     8
  1.5412742159957851E+00 a      1249     0    63     1     9
  2.5815732784226300E+00 a      1250     0    63     1    10
  9.7292517348132215E+00 a      1251     0    63     1    11
  2.7802033248415112E+00 a      1252     0    63     1    12
  5.4475596963375086E+00 a      1253     0    63     1    13
  5.1785465579348049E+00 a      1254     0    63     1    14
 -5.6959719330439276E+00 a      1255     0    63     1    15
 -3.3055359424166335E+00 a      1256     0    63     1    16
 -2.7182201760743547E+00 a      1257     0    63     1    17
 -9.2867654002585664E-01 a      1258     0    63     1    18
 -1.0514686166798570E+00 a      1259     0    63     1    19
  2.1523571060621078E+00 a      1260     0    63     1    20
 -9.7471653272211833E-01 a      1261     0    64     1     1
  5.7434392632152098E-01 a      1262     0    64     1     2
 -1.5183412289016815E+00 a      1263     0    64     1     3
 -2.6347582690921363E+00 a      1264     0    64     1     4
  3.7290417473555704E-01 a      1265     0    64     1     5
 -1.8943854531431974E+00 a      1266     0    64     1     6
  3.2618146510222229E-01 a      1267     0    64     1     7
  4.2478060407341983E-01 a      1268     0    64     1     8
 -6.6450785741060142E-02 a      1269     0    64     1     9
 -2.4012824580750851E+00 a      1270     0    64     1    10
  1.3573185441455560E+00 a      1271     0    64     1    11
  6.4145517550527187E-01 a      1272     0    64     1    12
  8.7992105976975610E-01 a      1273     0    64     1    13
  2.7420135514054396E+00 a      1274     0    64     1    14
 -2.0046440005775117E+00 a      1275     0    64     1    15
  1.9578308944410436E+00 a      1276     0    64     1    16
  6.5103724241769567E-01 a      1277     0    64     1    17
  6.9926631270542838E-01 a      1278     0    64     1    18
 -4.0300107807594909E-01 a      1279     0    64     1    19
 -2.7704665421882440E+00 a      1280     0    64     1    20
  7.5353297125244656E-01 a      1281     0    65     1     1
  1.4582717056160759E+00 a      1282     0    65     1     2
 -6.1239430586878141E-01 a      1283     0    65     1     3
  3.6789579623193992E-02 a      1284     0    65     1     4
 -5.8681257732261394E-01 a      1285     0    65     1     5
  1.5856257812717121E+00 a      1286     0    65     1     6
 -1.1253265848813712E+00 a      1287     0    65     1     7
  1.8410679740024412E+00 a      1288     0    65     1     8
  6.1277934397463685E-01 a      1289     0    65     1     9
 -2.2237493268790005E+00 a      1290     0    65     1    10
  1.4483318916589301E+00 a      1291     0    65     1    11
  4.8490860515510992E+00 a      1292     0    65     1    12
 -3.0132449499141685E+00 a      1293     0    65     1    13
  1.1086611393898400E+00 a      1294     0    65     1    14
  2.1374402789158525E-01 a      1295     0    65     1    15
  2.0374842426860815E+00 a      1296     0    65     1    16
 -8.6407725925320067E-01 a      1297     0    65     1    17
 -5.8644048788948425E-02 a      1298     0    65     1    18
 -3.5076422641370937E+00 a      1299     0    65     1    19
  3.8025134103704067E-01 a      1300     0    65     1    20
 -2.4637095490962557E-01 a      1301     0    66     1     1
  5.7999807814364663E+00 a      1302     0    66     1     2
  2.1197851202887059E+00 a      1303     0    66     1     3
 -4.2243394261334108E+00 a      1304     0    66     1     4
 -4.6218458550930936E+00 a      1305     0    66     1     5
 -5.1871521315192917E+00 a      1306     0    66     1     6
 -4.4048510756020347E+00 a      1307     0    66     1     7
  8.3906953328372802E-01 a      1308     0    66     1     8
  2.2565774633554510E+00 a      1309     0    66     1     9
 -3.2466315436470499E+00 a      1310     0    66     1    10
  5.6351821469548025E+00 a      1311     0    66     1    11
  8.3559257466183798E-02 a      1312     0    66     1    12
  4.3104995673268505E+00 a      1313     0    66     1    13
  6.9615780497498463E+00 a      1314     0    66     1    14
 -6.6867973870337816E-01 a      1315     0    66     1    15
  1.7957327902228641E+00 a      1316     0    66     1    16
  2.8243392888797469E+00 a      1317     0    66     1    17
  2.8098503912430617E-01 a      1318     0    66     1    18
  4.3184514443813304E-01 a      1319     0    66     1    19
 -5.4625891768578141E+00 a      1320     0    66     1    20
  6.1472254710840426E+00 a      1321     0    67     1     1
 -6.3275145349258777E+00 a      1322     0    67     1     2
 -2.2824452559784665E+00 a      1323     0    67     1     3
  5.4909913345209134E+00 a      1324     0    67     1     4
 -7.5087493527211147E-01 a      1325     0    67     1     5
 -5.2918109250102088E+00 a      1326     0    67     1     6
  3.5792931461563784E+00 a      1327     0    67     1     7
 -3.0642417906249904E+00 a      1328     0    67     1     8
  9.6172766309063185E-01 a      1329     0    67     1     9
  4.8292226552058199E+00 a      1330     0    67     1    10
 -4.6869314536300539E+00 a      1331     0    67     1    11
 -5.4347979065922161E+00 a      1332     0    67     1    12
 -3.4463784412896787E+00 a      1333     0    67     1    13
 -6.5165152105280777E+00 a      1334     0    67     1    14
 -2.6949013694482509E+00 a      1335     0    67     1    15
 -3.2496087369724629E+00 a      1336     0    67     1    16
  7.6386451880192467E+00 a      1337     0    67     1    17
 -6.8219726879623421E-01 a      1338     0    67     1    18
  1.7363151663682554E+00 a      1339     0    67     1    19
 -7.0418030231599771E-01 a      1340     0    67     1    20
  4.3745529599694571E-01 a      1341     0    68     1     1
  1.0062371300933544E+00 a      1342     0    68     1     2
  1.9731386357182059E+00 a      1343     0    68     1     3
  1.7668259808285620E+00 a      1344     0    68     1     4
 -6.4651208941507763E+00 a      1345     0    68     1     5
 -3.6784437081107946E-01 a      1346     0    68     1     6
 -4.7951940339222104E-01 a      1347     0    68     1     7
 -1.4828792734823308E+00 a      1348     0    68     1     8
  8.4760485936881097E-02 a      1349     0    68     1     9
  2.6651415084175309E+00 a      1350     0    68     1    10
  4.0019584578392502E+00 a      1351     0    68     1    11
  4.7826992621699373E+00 a      1352     0    68     1    12
 -1.5709038383096672E+00 a      1353     0    68     1    13
 -3.5233952860263007E+00 a      1354     0    68     1    14
  5.5420206977127096E-01 a      1355     0    68     1    15
 -8.6073004063420236E-02 a      1356     0    68     1    16
  1.5802914378019921E+00 a      1357     0    68     1    17
  2.0198735553943417E+00 a      1358     0    68     1    18
  2.3934848840449816E+00 a      1359     0    68     1    19
  1.0356032235013446E+00 a      1360     0    68     1    20
  2.4917049188550289E-01 a      1361     0    69     1     1
 -2.7177925763451221E+00 a      1362     0    69     1     2
 -6.8049859522835965E-01 a      1363     0    69     1     3
  5.8961620639240409E-01 a      1364     0    69     1     4
  1.7981349299188487E+00 a      1365     0    69     1     5
  9.8391995258905995E-01 a      1366     0    69     1     6
 -3.7834148110024624E-01 a      1367     0    69     1     7
  1.0295509874336095E+00 a      1368     0    69     1     8
 -1.7367248112838698E+00 a      1369     0    69     1     9
 -3.8949496811373147E-01 a      1370     0    69     1    10
 -4.7091220416756124E-01 a      1371     0    69     1    11
 -2.1039032353988893E-01 a      1372     0    69     1    12
 -9.6197537221452156E-01 a      1373     0    69     1    13
 -1.9308770871586061E+00 a      1374     0    69     1    14
  3.4768229445732962E-01 a      1375     0    69     1    15
  1.0861991778302431E+00 a      1376     0    69     1    16
 -7.8134401949645393E-01 a      1377     0    69     1    17
  7.8178795344779706E-01 a      1378     0    69     1    18
 -7.2374329390432746E-01 a      1379     0    69     1    19
 -9.5944542765957896E-01 a      1380     0    69     1    20
 -2.0298350517643398E+00 a      1381     0    70     1     1
 -1.1257078974782733E+00 a      1382     0    70     1     2
  9.3483418607790292E-01 a      1383     0    70     1     3
  1.0660288082807781E+00 a      1384     0    70     1     4
  1.4501640187885210E+00 a      1385     0    70     1     5
 -1.6273490953750888E-01 a      1386     0    70     1     6
  1.1409652847586140E+00 a      1387     0    70     1     7
  3.4218042646878222E+00 a      1388     0    70     1     8
  6.3910891096792502E-02 a      1389     0    70     1     9
  1.8247879455739719E+00 a      1390     0    70     1    10
 -2.4720367245426944E+00 a      1391     0    70     1    11
 -2.7776105311208270E+00 a      1392     0    70     1    12
  7.2144735966444828E-01 a      1393     0    70     1    13
  1.4364556177501240E+00 a      1394     0    70     1    14
  5.8805155496900474E-01 a      1395     0    70     1    15
  1.5590374182683298E-01 a      1396     0    70     1    16
 -1.4123231821002786E+00 a      1397     0    70     1    17
  1.4904090742560034E+00 a      1398     0    70     1    18
  1.0621984370793487E+00 a      1399     0    70     1    19
  2.7804008478186248E-01 a      1400     0    70     1    20
 -2.5254165301234943E+00 a      1401     0    71     1     1
 -5.3422404275575408E+00 a      1402     0    71     1     2
 -8.1449882481769709E-01 a      1403     0    71     1     3
  2.4236703475381325E+00 a      1404     0    71     1     4
  1.3246864363649054E+00 a      1405     0    71     1     5
  1.7904698037143594E+00 a      1406     0    71     1     6
  1.2546892488038368E+00 a      1407     0    71     1     7
  4.4026450171517850E-01 a      1408     0    71     1     8
  5.8252279010978780E-01 a      1409     0    71     1     9
  4.1162129931189168E-01 a      1410     0    71     1    10
 -2.6918862603657887E+00 a      1411     0    71     1    11
  5.7726216632856875E-01 a      1412     0    71     1    12
 -3.8579012366921006E+00 a      1413     0    71     1    13
 -1.1904735938282431E+00 a      1414     0    71     1    14
  1.7370344094345755E+00 a      1415     0    71     1    15
 -4.7936727505083460E-01 a      1416     0    71     1    16
 -5.9343897761780240E-01 a      1417     0    71     1    17
  3.7091329163283160E-01 a      1418     0    71     1    18
 -9.5553117300924895E-01 a      1419     0    71     1    19
 -1.7290312645034709E+00 a      1420     0    71     1    20
  2.3433218041035091E+00 a      1421     0    72     1     1
  3.6072569241383849E+00 a      1422     0    72     1     2
  1.9946836061607336E+00 a      1423     0    72     1     3
 -2.6761342476106997E+00 a      1424     0    72     1     4
 -2.0164616855758437E+00 a      1425     0    72     1     5
 -1.1479095443714313E+00 a      1426     0    72     1     6
  6.3193905636347403E-01 a      1427     0    72     1     7
 -2.8456737197013271E-01 a      1428     0    72     1     8
  4.3604088906669363E+00 a      1429     0    72     1     9
  2.6548009029581863E+00 a      1430     0    72     1    10
  3.0634352495929457E-01 a      1431     0    72     1    11
 -4.2528887010728361E-01 a      1432     0    72     1    12
  2.1383417834551759E+00 a      1433     0    72     1    13
  4.5478920429369678E+00 a      1434     0    72     1    14
 -2.3919512747079041E+00 a      1435     0    72     1    15
 -3.7380202767140519E-01 a      1436     0    72     1    16
  1.0095160260638205E+00 a      1437     0    72     1    17
 -1.4207699814879073E+00 a      1438     0    72     1    18
  2.5806602959567293E+00 a      1439     0    72     1    19
  1.7854181039241988E+00 a      1440     0    72     1    20
  1.4804472913214994E+00 a      1441     0    73     1     1
 -2.0824214591073549E+00 a      1442     0    73     1     2
 -1.1525051934001067E+00 a      1443     0    73     1     3
  1.4044323473436424E+00 a      1444     0    73     1     4
  3.0504992320634994E+00 a      1445     0    73     1     5
  8.0695972516538350E-01 a      1446     0    73     1     6
  2.5466457333702325E-01 a      1447     0    73     1     7
  1.0055494774008666E+00 a      1448     0    73     1     8
 -6.7873774548841703E-01 a      1449     0    73     1     9
  1.8554957143634021E+00 a      1450     0    73     1    10
 -5.8032289195948481E+00 a      1451     0    73     1    11
  1.1628452838999945E+00 a      1452     0    73     1    12
 -6.4490354546335871E+00 a      1453     0    73     1    13
 -4.2029067766941386E-01 a      1454     0    73     1    14
  2.6563679814635015E+00 a      1455     0    73     1    15
 -7.2958086114676868E-01 a      1456     0    73     1    16
 -9.8096606967534161E-01 a      1457     0    73     1    17
 -1.0225221968913147E-01 a      1458     0    73     1    18
  1.5873308879508169E-01 a      1459     0    73     1    19
  1.2254295826064574E+00 a      1460     0    73     1    20
 -7.9217875360732226E-01 a      1461     0    74     1     1
  5.0539528480713614E-01 a      1462     0    74     1     2
 -1.1229469649217896E+00 a      1463     0    74     1     3
  5.3835435109167906E-01 a      1464     0    74     1     4
 -3.9016791538897766E+00 a      1465     0    74     1     5
 -1.1775223302670119E+00 a      1466     0    74     1     6
  8.0963354431501833E-01 a      1467     0    74     1     7
 -4.2665149188666982E+00 a      1468     0    74     1     8
  2.9705008817509682E-01 a      1469     0    74     1     9
 -7.3839127657744175E-01 a      1470     0    74     1    10
 -3.1397495946657600E-01 a      1471     0    74     1    11
 -8.1008067882799339E-01 a      1472     0    74     1    12
 -4.7202574657499454E+00 a      1473     0    74     1    13
  1.3723974572946782E+00 a      1474     0    74     1    14
  3.5877258292604730E-01 a      1475     0    74     1    15
 -1.8833515187356948E+00 a      1476     0    74     1    16
  1.1615715936856366E+00 a      1477     0    74     1    17
 -2.2023873763486805E+00 a      1478     0    74     1    18
  1.3247650732841307E+00 a      1479     0    74     1    19
 -4.5258759298299631E-02 a      1480     0    74     1    20
 -2.8746370955773317E+00 a      1481     0    75     1     1
 -3.8652602819269806E+00 a      1482     0    75     1     2
 -1.0882795936260456E+00 a      1483     0    75     1     3
  2.4478960030087960E+00 a      1484     0    75     1     4
  1.2693721426919347E+00 a      1485     0    75     1     5
 -6.7511556849448573E-01 a      1486     0    75     1     6
 -1.9400786155710600E-01 a      1487     0    75     1     7
 -1.1378700899357330E+00 a      1488     0    75     1     8
 -4.1823810198994424E+00 a      1489     0    75     1     9
 -1.8256540164558803E+00 a      1490     0    75     1    10
 -7.0670812790773563E-01 a      1491     0    75     1    11
 -1.3689076418859079E+00 a      1492     0    75     1    12
  9.1270406561369788E-01 a      1493     0    75     1    13
 -6.1539972987353684E+00 a      1494     0    75     1    14
  2.1769798767492681E+00 a      1495     0    75     1    15
 -1.5393465297774742E+00 a      1496     0    75     1    16
  1.0725021940108204E+00 a      1497     0    75     1    17
  1.4191857393351917E+00 a      1498     0    75     1    18
 -7.2005853424266275E-01 a      1499     0    75     1    19
 -1.5963010895401446E+00 a      1500     0    75     1    20
  1.7427631469672797E+00 a      1501     0    76     1     1
  9.1572103199206589E-01 a      1502     0    76     1     2
  9.8079899883541855E-01 a      1503     0    76     1     3
 -3.0235851417203063E-01 a      1504     0    76     1     4
 -2.4768805442899273E+00 a      1505     0    76     1     5
 -1.1444700841320294E+00 a      1506     0    76     1     6
 -5.5999649907316214E-02 a      1507     0    76     1     7
 -1.0158647499528231E+00 a      1508     0    76     1     8
 -3.2725490898790449E-01 a      1509     0    76     1     9
 -2.2612540419087609E-01 a      1510     0    76     1    10
  4.4266797461232716E+00 a      1511     0    76     1    11
  9.2896111774953272E-01 a      1512     0    76     1    12
 -1.5872426089235532E+00 a      1513     0    76     1    13
 -2.5437879046920679E+00 a      1514     0    76     1    14
  1.4131080335850101E+00 a      1515     0    76     1    15
 -5.5148904612342942E-01 a      1516     0    76     1    16
  2.1675149109597638E+00 a      1517     0    76     1    17
  6.6247367945775770E-01 a      1518     0    76     1    18
  5.3031571066467065E-01 a      1519     0    76     1    19
 -1.7442237513789027E-01 a      1520     0    76     1    20
  1.7221936131838358E+00 a      1521     0    77     1     1
 -3.8637033893261792E-02 a      1522     0    77     1     2
 -1.3020770043219139E+00 a      1523     0    77     1     3
 -9.6844371274164087E-01 a      1524     0    77     1     4
  2.3524557984472265E+00 a      1525     0    77     1     5
  6.3808847637362498E-01 a      1526     0    77     1     6
 -1.1910556559190477E+00 a      1527     0    77     1     7
  1.0824937245917166E+00 a      1528     0    77     1     8
 -2.9918943465577313E-01 a      1529     0    77     1     9
  1.9660772537884902E-01 a      1530     0    77     1    10
 -4.0869074410590054E+00 a      1531     0    77     1    11
  7.1434543952442398E-01 a      1532     0    77     1    12
 -5.0677232570990070E+00 a      1533     0    77     1    13
  2.3989319878298310E+00 a      1534     0    77     1    14
 -1.7534823904806476E+00 a      1535     0    77     1    15
  1.6753003209466151E+00 a      1536     0    77     1    16
 -9.5748734772194632E-01 a      1537     0    77     1    17
  1.5797089120524181E+00 a      1538     0    77     1    18
  7.0272761729665212E-01 a      1539     0    77     1    19
  1.6405134126440017E+00 a      1540     0    77     1    20
 -6.5784811327090786E-01 a      1541     0    78     1     1
  2.1554526450668337E+00 a      1542     0    78     1     2
 -2.6674825620590242E-02 a      1543     0    78     1     3
 -2.0018573727585305E+00 a      1544     0    78     1     4
  1.0656621860437156E-01 a      1545     0    78     1     5
  2.0814865280402479E+00 a      1546     0    78     1     6
 -3.2029964033740282E-01 a      1547     0    78     1     7
  1.6592198491027073E+00 a      1548     0    78     1     8
  1.1933548743256781E+00 a      1549     0    78     1     9
 -1.4973636088749251E-01 a      1550     0    78     1    10
 -1.4335263007413830E+00 a      1551     0    78     1    11
  4.5357062673410189E+00 a      1552     0    78     1    12
 -7.1288137530226239E-02 a      1553     0    78     1    13
  6.1392592290434083E+00 a      1554     0    78     1    14
  1.5268514676247049E+00 a      1555     0    78     1    15
  3.4255856926613948E+00 a      1556     0    78     1    16
 -5.1699399585218302E+00 a      1557     0    78     1    17
  7.9178832752959571E-01 a      1558     0    78     1    18
 -5.7960154540647257E-01 a      1559     0    78     1    19
  8.4844183993777689E-01 a      1560     0    78     1    20
 -1.2166568675586751E+00 a      1561     0    79     1     1
 -8.1543331504431171E-01 a      1562     0    79     1     2
 -5.2320618660781815E+00 a      1563     0    79     1     3
 -1.8529837656302308E+00 a      1564     0    79     1     4
  7.1409992987484667E+00 a      1565     0    79     1     5
  8.6249592938095021E-01 a      1566     0    79     1     6
 -5.6279196144401744E-01 a      1567     0    79     1     7
  8.2615203600541853E-01 a      1568     0    79     1     8
  2.4738571965009698E-01 a      1569     0    79     1     9
 -3.6346819892101636E+00 a      1570     0    79     1    10
 -6.9129278882553038E+00 a      1571     0    79     1    11
 -4.0553188983961075E+00 a      1572     0    79     1    12
  1.6447775771803919E+00 a      1573     0    79     1    13
  6.0246647241723190E+00 a      1574     0    79     1    14
 -1.5131233236302701E+00 a      1575     0    79     1    15
  2.6880927450930825E-01 a      1576     0    79     1    16
 -4.0773757020301717E+00 a      1577     0    79     1    17
 -2.3304321934160441E+00 a      1578     0    79     1    18
 -4.1911616898973190E+00 a      1579     0    79     1    19
 -8.2914804397082242E-01 a      1580     0    79     1    20
  4.6025456439757045E-01 a      1581     0    80     1     1
  2.7392933076440878E-01 a      1582     0    80     1     2
  6.1780405343853574E-02 a      1583     0    80     1     3
 -3.0231789129091197E-01 a      1584     0    80     1     4
 -2.7228060390782832E-01 a      1585     0    80     1     5
  3.0486541364909092E-01 a      1586     0    80     1     6
  3.9181016288026543E-01 a      1587     0    80     1     7
  2.6437471481053160E-01 a      1588     0    80     1     8
 -2.8696990783336035E-01 a      1589     0    80     1     9
  1.4621341251601944E-01 a      1590     0    80     1    10
 -2.1114761819481384E-01 a      1591     0    80     1    11
  2.8247705602216250E-01 a      1592     0    80     1    12
 -7.0323088608166551E-02 a      1593     0    80     1    13
  6.9451667667061068E-02 a      1594     0    80     1    14
  8.1897229556166254E-02 a      1595     0    80     1    15
  3.4168811588287112E-01 a      1596     0    80     1    16
  2.7825347073669949E-02 a      1597     0    80     1    17
 -5.7244156671109395E-02 a      1598     0    80     1    18
  7.2820804252679983E-01 a      1599     0    80     1    19
  3.9913976890140407E-01 a      1600     0    80     1    20
 -3.7868153018673119E+00 a      1601     0    81     1     1
 -4.0299659667670601E-01 a      1602     0    81     1     2
 -2.5793299560249988E+01 a      1603     0    81     1     3
 -3.4505166520909930E-01 a      1604     0    81     1     4
 -4.3488851589821405E+00 a      1605     0    81     1     5
  5.4457241848624061E-01 a      1606     0    81     1     6
 -1.3854610224244007E+01 a      1607     0    81     1     7
  1.0577533750179204E+00 a      1608     0    81     1     8
  1.6365455806280069E-01 a      1609     0    81     1     9
  1.6703809168383177E+00 a      1610     0    81     1    10
 -6.4542098106040091E-01 a      1611     0    81     1    11
 -4.3790300023397266E-01 a      1612     0    81     1    12
  1.4741494334794387E+00 a      1613     0    81     1    13
  1.0045138641115510E+00 a      1614     0    81     1    14
  7.2022534431008620E-03 a      1615     0    81     1    15
  8.0537080349103878E+00 a      1616     0    81     1    16
 -1.0958396712026634E-02 a      1617     0    81     1    17
 -6.0132995919239048E-02 a      1618     0    81     1    18
 -2.0297427724519381E+00 a      1619     0    81     1    19
 -6.4908402512701735E-01 a      1620     0    81     1    20
 -7.6029097583471439E-01 a      1621     0    82     1     1
 -2.2408641457232314E-01 a      1622     0    82     1     2
 -2.1935271416243746E-01 a      1623     0    82     1     3
