################################################################################
# Neural network connection values (weights and biases).
################################################################################
# Col  Name       Description
################################################################################
# 1    connection Neural network connection value.
# 2    t          Connection type (a = weight, b = bias).
# 3    index      Index enumerating weights.
# 4    l_s        Starting point layer (end point layer for biases).
# 5    n_s        Starting point neuron in starting layer (end point neuron for biases).
# 6    l_e        End point layer.
# 7    n_e        End point neuron in end layer.
################################################################################
#                      1 2         3     4     5     6     7
#             connection t     index   l_s   n_s   l_e   n_e
############################################################
  4.2073314628221015E+00 a         1     0     1     1     1
  3.6526852036613269E+00 a         2     0     1     1     2
 -8.5421327036417383E-01 a         3     0     1     1     3
  3.3284484952778808E+00 a         4     0     1     1     4
 -1.8856450001756841E+00 a         5     0     1     1     5
 -3.1143716433244797E+00 a         6     0     1     1     6
 -6.7719676401173945E-01 a         7     0     1     1     7
  1.7866843148140072E+00 a         8     0     1     1     8
 -1.5452351497484373E+00 a         9     0     1     1     9
  7.5344670955384863E-01 a        10     0     1     1    10
  1.6370800343090657E+00 a        11     0     1     1    11
  1.0502587070450131E+00 a        12     0     1     1    12
 -9.1097462809933960E-01 a        13     0     1     1    13
  2.3503972207162221E-01 a        14     0     1     1    14
 -3.4898057408079755E+00 a        15     0     1     1    15
  1.5812773338596511E+00 a        16     0     1     1    16
 -2.4647009709404659E+00 a        17     0     1     1    17
 -2.2273965400950031E+00 a        18     0     1     1    18
 -4.5391381719160429E-01 a        19     0     1     1    19
  1.4655614018066887E+00 a        20     0     1     1    20
  4.2338862932418841E-01 a        21     0     2     1     1
  3.6676785155899627E-01 a        22     0     2     1     2
 -2.4573446466117740E-01 a        23     0     2     1     3
  2.6398466771785983E-01 a        24     0     2     1     4
 -1.3047538097149372E+00 a        25     0     2     1     5
  6.3434088391973320E-01 a        26     0     2     1     6
 -5.0340364521517045E-01 a        27     0     2     1     7
 -6.8248559556005328E-01 a        28     0     2     1     8
  2.1168716181006519E-01 a        29     0     2     1     9
 -1.1532741267630533E+00 a        30     0     2     1    10
 -5.6667583065354155E-01 a        31     0     2     1    11
  2.2326716104491962E-01 a        32     0     2     1    12
  2.3120053636514942E-01 a        33     0     2     1    13
 -2.7518369358387462E-01 a        34     0     2     1    14
  3.4412328573677248E-01 a        35     0     2     1    15
 -7.8497233081851669E-01 a        36     0     2     1    16
  9.6702138875688481E-01 a        37     0     2     1    17
  2.3312144471568222E-01 a        38     0     2     1    18
  4.4046679206536560E-01 a        39     0     2     1    19
 -1.2144914862381273E+00 a        40     0     2     1    20
 -3.4543158045741496E-01 a        41     0     3     1     1
  1.3678900728666643E+00 a        42     0     3     1     2
 -5.6581812999513603E-01 a        43     0     3     1     3
 -2.1622968335088233E+00 a        44     0     3     1     4
  1.1112580646140759E-01 a        45     0     3     1     5
  1.6935934754441244E+00 a        46     0     3     1     6
  3.9160412825847679E-01 a        47     0     3     1     7
 -1.8587524626998448E+00 a        48     0     3     1     8
 -1.4304126575811988E+00 a        49     0     3     1     9
 -1.7314001681976834E+00 a        50     0     3     1    10
 -3.4448484592977908E+00 a        51     0     3     1    11
 -1.0326215329040340E+00 a        52     0     3     1    12
 -1.8452744442971965E-02 a        53     0     3     1    13
  4.5206990104368336E-02 a        54     0     3     1    14
  9.6404986934295966E-01 a        55     0     3     1    15
  3.8613970169773121E-01 a        56     0     3     1    16
 -1.9318798980378210E-01 a        57     0     3     1    17
 -5.6687471315266558E-01 a        58     0     3     1    18
  1.3361493283734571E+00 a        59     0     3     1    19
 -2.3440181516841290E+00 a        60     0     3     1    20
 -1.7640171183091619E-01 a        61     0     4     1     1
  5.7997534001069873E-01 a        62     0     4     1     2
 -6.3320753586226394E-02 a        63     0     4     1     3
  2.4276594627105041E-01 a        64     0     4     1     4
 -8.4274455780464974E-01 a        65     0     4     1     5
  6.0286403007445755E-01 a        66     0     4     1     6
 -4.9186834688354247E-01 a        67     0     4     1     7
 -4.9126202033038746E-01 a        68     0     4     1     8
  2.6429425664448736E-01 a        69     0     4     1     9
 -6.9304578910998160E-01 a        70     0     4     1    10
 -1.7363681734606778E-01 a        71     0     4     1    11
  6.3890923368445995E-01 a        72     0     4     1    12
 -8.6422426828850901E-02 a        73     0     4     1    13
  1.3920080593033679E-01 a        74     0     4     1    14
  1.4736917240099029E-01 a        75     0     4     1    15
 -3.0544743447513223E-01 a        76     0     4     1    16
  2.6956628290200779E-01 a        77     0     4     1    17
  3.5751289800651459E-01 a        78     0     4     1    18
  3.4837520538199579E-01 a        79     0     4     1    19
 -9.9177841310862469E-01 a        80     0     4     1    20
  5.3021791655032768E-01 a        81     0     5     1     1
  7.9036224438184965E-01 a        82     0     5     1     2
 -2.9324957102214938E-01 a        83     0     5     1     3
 -1.2395622874796225E-01 a        84     0     5     1     4
  5.8862280620003082E-01 a        85     0     5     1     5
 -4.8666378211365974E-01 a        86     0     5     1     6
 -1.7151560705404253E-01 a        87     0     5     1     7
 -7.6552329882306180E-01 a        88     0     5     1     8
 -6.1139868132832353E-01 a        89     0     5     1     9
  1.1171639896822698E+00 a        90     0     5     1    10
  1.1749755260671411E+00 a        91     0     5     1    11
  1.4927860545745217E+00 a        92     0     5     1    12
  3.6478719209285532E-01 a        93     0     5     1    13
 -5.0229995867378308E-02 a        94     0     5     1    14
 -2.2637398190224281E-01 a        95     0     5     1    15
 -3.1332322427992942E-01 a        96     0     5     1    16
 -2.9107443407951528E-01 a        97     0     5     1    17
 -2.0566443460447012E-01 a        98     0     5     1    18
 -1.5257137537037946E+00 a        99     0     5     1    19
 -1.3179564659916367E+00 a       100     0     5     1    20
 -5.6336931925757383E-01 a       101     0     6     1     1
  4.4028918650299637E-01 a       102     0     6     1     2
  8.6586133432458037E-02 a       103     0     6     1     3
 -6.4759322091414206E-01 a       104     0     6     1     4
 -1.5961657447044406E-01 a       105     0     6     1     5
  5.9845060734083699E-01 a       106     0     6     1     6
 -1.2996466776454669E-03 a       107     0     6     1     7
 -6.7260824319317813E-01 a       108     0     6     1     8
 -1.7453791354911933E-02 a       109     0     6     1     9
 -3.5189261725485788E-01 a       110     0     6     1    10
 -6.7358812272308610E-02 a       111     0     6     1    11
  8.7646139170547754E-01 a       112     0     6     1    12
  2.5647758454720110E-01 a       113     0     6     1    13
  1.8540254095507908E-01 a       114     0     6     1    14
 -4.3697078436553696E-02 a       115     0     6     1    15
 -3.6071784359242814E-01 a       116     0     6     1    16
  4.1427962240528482E-01 a       117     0     6     1    17
 -1.3009684374955641E-01 a       118     0     6     1    18
 -4.6098067816928580E-02 a       119     0     6     1    19
 -4.0697013832134571E-01 a       120     0     6     1    20
 -4.1162418835783610E-01 a       121     0     7     1     1
  1.2472603843788486E+00 a       122     0     7     1     2
  7.7095147306725031E-01 a       123     0     7     1     3
  3.9110335144469138E-01 a       124     0     7     1     4
 -9.4344246440988422E-01 a       125     0     7     1     5
  6.0235497068811961E-01 a       126     0     7     1     6
 -6.1212343181380657E-01 a       127     0     7     1     7
 -2.2403071486301980E+00 a       128     0     7     1     8
  4.4173199061555235E-01 a       129     0     7     1     9
  6.4375655283525390E-01 a       130     0     7     1    10
 -7.1801746249543319E-01 a       131     0     7     1    11
 -1.6119335502969940E+00 a       132     0     7     1    12
  1.0278598666425403E+00 a       133     0     7     1    13
 -3.1764747101258352E-02 a       134     0     7     1    14
  1.8938959832432423E-01 a       135     0     7     1    15
 -9.8334090377458827E-01 a       136     0     7     1    16
 -6.0271323340959160E-01 a       137     0     7     1    17
 -8.6982149397048480E-01 a       138     0     7     1    18
 -4.2421317223152416E-01 a       139     0     7     1    19
 -9.7382072916301121E-01 a       140     0     7     1    20
  1.7432107520495770E+00 a       141     0     8     1     1
 -1.9365307870240476E+00 a       142     0     8     1     2
 -1.1975945098240790E+00 a       143     0     8     1     3
  2.0034335937341070E+00 a       144     0     8     1     4
 -6.5754869022999207E-01 a       145     0     8     1     5
 -1.7725301331365265E-01 a       146     0     8     1     6
 -1.5905650555369064E-01 a       147     0     8     1     7
 -2.6005129235332697E-01 a       148     0     8     1     8
  6.7787252909236606E-01 a       149     0     8     1     9
  2.7582511373532146E+00 a       150     0     8     1    10
  3.0788592476183635E-01 a       151     0     8     1    11
 -1.5441765171630235E+00 a       152     0     8     1    12
  1.4184279046307330E-01 a       153     0     8     1    13
  1.1689807967305480E-02 a       154     0     8     1    14
  9.5774207921029886E-01 a       155     0     8     1    15
  1.4772636080790724E-01 a       156     0     8     1    16
  8.2106373544005917E-01 a       157     0     8     1    17
 -2.7718377058192445E+00 a       158     0     8     1    18
  2.0469443034737980E+00 a       159     0     8     1    19
  2.6152402357187471E-01 a       160     0     8     1    20
 -1.1681062805075497E+00 a       161     0     9     1     1
 -9.8161895153144096E-01 a       162     0     9     1     2
  1.0591826249368332E+00 a       163     0     9     1     3
  7.2734854256748960E-01 a       164     0     9     1     4
 -4.0693373198297222E-01 a       165     0     9     1     5
  1.3269802859752244E+00 a       166     0     9     1     6
 -6.4152159492349270E-01 a       167     0     9     1     7
  6.3988923502935646E-01 a       168     0     9     1     8
  9.2975843358126187E-01 a       169     0     9     1     9
 -3.0271096142179452E+00 a       170     0     9     1    10
 -2.7282180165816912E+00 a       171     0     9     1    11
 -2.4430896292862587E+00 a       172     0     9     1    12
  5.5633964694885178E-02 a       173     0     9     1    13
 -9.2651153567723832E-01 a       174     0     9     1    14
 -3.1826632119294634E-01 a       175     0     9     1    15
 -1.5124002188788168E+00 a       176     0     9     1    16
  9.3786903275215994E-01 a       177     0     9     1    17
  2.2494927835077588E-01 a       178     0     9     1    18
  4.0258395866800605E+00 a       179     0     9     1    19
  1.1142288203605422E+00 a       180     0     9     1    20
 -2.1708455671470420E-01 a       181     0    10     1     1
  2.1339491188879672E-01 a       182     0    10     1     2
  9.0164550666735094E-02 a       183     0    10     1     3
 -1.2249573278255235E+00 a       184     0    10     1     4
  6.6178404228862586E-01 a       185     0    10     1     5
  1.5072194119777516E+00 a       186     0    10     1     6
  1.2869536312856544E-01 a       187     0    10     1     7
 -2.6068880640334557E-01 a       188     0    10     1     8
 -3.2930067786658718E-01 a       189     0    10     1     9
  8.6179553068134040E-01 a       190     0    10     1    10
  4.7671231669853889E-02 a       191     0    10     1    11
  6.1826172640878152E-01 a       192     0    10     1    12
  2.0846170637655578E-02 a       193     0    10     1    13
 -1.3148865202924562E-01 a       194     0    10     1    14
 -1.2782862716129911E-01 a       195     0    10     1    15
 -3.3766512042598168E-01 a       196     0    10     1    16
  5.7055207336050495E-01 a       197     0    10     1    17
 -1.4760025667041377E+00 a       198     0    10     1    18
  2.9463356948693492E-01 a       199     0    10     1    19
  9.0103379197543487E-01 a       200     0    10     1    20
 -2.6803158709351789E+00 a       201     0    11     1     1
  5.6802551298317172E-01 a       202     0    11     1     2
  1.5267309517821853E-01 a       203     0    11     1     3
 -4.0910458043959164E-01 a       204     0    11     1     4
 -1.5804630481860737E-01 a       205     0    11     1     5
  1.6092667655613049E-01 a       206     0    11     1     6
  5.7653709647534579E-01 a       207     0    11     1     7
 -4.7396553366938077E-01 a       208     0    11     1     8
 -2.9297053730199588E-02 a       209     0    11     1     9
  1.4103569918251652E-01 a       210     0    11     1    10
 -1.1860719121089309E+00 a       211     0    11     1    11
 -9.5638884107756150E-01 a       212     0    11     1    12
 -1.1635178954477046E+00 a       213     0    11     1    13
 -6.7319815157915974E-01 a       214     0    11     1    14
  1.0362398400525448E+00 a       215     0    11     1    15
 -6.4185966488550605E-01 a       216     0    11     1    16
  5.2960995024184299E-01 a       217     0    11     1    17
 -1.5132883529417135E-01 a       218     0    11     1    18
 -1.2586201444803449E-01 a       219     0    11     1    19
 -1.0169519498238815E+00 a       220     0    11     1    20
  1.3624499176541029E+00 a       221     0    12     1     1
 -7.4015806099099757E-01 a       222     0    12     1     2
 -2.2590484222206617E-01 a       223     0    12     1     3
  8.6388730511455381E-01 a       224     0    12     1     4
 -1.3995060470415632E+00 a       225     0    12     1     5
  1.9851861251868505E-01 a       226     0    12     1     6
  4.9709766554877671E-01 a       227     0    12     1     7
 -1.7038510963187370E-01 a       228     0    12     1     8
  5.1457294851234225E-01 a       229     0    12     1     9
  1.2653342236975449E+00 a       230     0    12     1    10
  2.1579064782011864E-01 a       231     0    12     1    11
 -5.9957995163374056E-01 a       232     0    12     1    12
  1.5359189202365859E-02 a       233     0    12     1    13
 -8.4644683885417138E-01 a       234     0    12     1    14
  1.1680773443494882E-01 a       235     0    12     1    15
 -5.2235641724556003E-01 a       236     0    12     1    16
  7.8392904388527374E-01 a       237     0    12     1    17
 -1.8385808760434037E+00 a       238     0    12     1    18
  4.4952261320575349E-01 a       239     0    12     1    19
 -2.4240759312054841E-01 a       240     0    12     1    20
 -5.3069091163917970E-01 a       241     0    13     1     1
 -4.2646265389642074E-01 a       242     0    13     1     2
 -2.0646610620008690E-01 a       243     0    13     1     3
 -1.7961158388452722E-01 a       244     0    13     1     4
 -5.6662976108381218E-02 a       245     0    13     1     5
 -6.6493348289587673E-01 a       246     0    13     1     6
 -1.0839698107914450E-01 a       247     0    13     1     7
  3.4675244264036165E-01 a       248     0    13     1     8
 -5.4221649722364473E-01 a       249     0    13     1     9
  3.8755428220122318E-01 a       250     0    13     1    10
 -4.6143186551445176E-01 a       251     0    13     1    11
 -2.5845465838229797E-01 a       252     0    13     1    12
  7.9398769481722531E-02 a       253     0    13     1    13
 -2.7953136141077700E-01 a       254     0    13     1    14
 -9.6650522083059742E-02 a       255     0    13     1    15
  2.0457642113751600E-02 a       256     0    13     1    16
 -3.5285738381813903E-01 a       257     0    13     1    17
  4.4919743702268455E-01 a       258     0    13     1    18
  4.4003950159045868E-01 a       259     0    13     1    19
  4.0446112618994290E-01 a       260     0    13     1    20
  1.8140205699873449E-01 a       261     0    14     1     1
 -8.0219885934434632E-01 a       262     0    14     1     2
  1.3995117239070151E-01 a       263     0    14     1     3
 -3.6701682384038653E-01 a       264     0    14     1     4
  2.7434262581034607E-01 a       265     0    14     1     5
  7.2523956513895504E-01 a       266     0    14     1     6
 -5.2845196615553880E-01 a       267     0    14     1     7
 -1.8036919250844525E+00 a       268     0    14     1     8
  6.6709024529612748E-01 a       269     0    14     1     9
 -5.0987058319570910E-01 a       270     0    14     1    10
 -5.8707166855059190E-01 a       271     0    14     1    11
  9.4964975222716153E-01 a       272     0    14     1    12
  3.8364383105248934E-01 a       273     0    14     1    13
  4.5167240874403392E-01 a       274     0    14     1    14
  1.5537415210734542E+00 a       275     0    14     1    15
 -1.0634205230631486E+00 a       276     0    14     1    16
  6.4713593148784521E-01 a       277     0    14     1    17
  2.0814238882031728E+00 a       278     0    14     1    18
  8.5500960648187496E-01 a       279     0    14     1    19
 -3.8284639075789173E-01 a       280     0    14     1    20
 -8.3224082298838112E-02 a       281     0    15     1     1
  2.1291622443025007E-01 a       282     0    15     1     2
 -2.9284930255590604E-03 a       283     0    15     1     3
 -2.1874917473550054E-02 a       284     0    15     1     4
  1.1565723545569993E-01 a       285     0    15     1     5
  3.6766047590331580E-01 a       286     0    15     1     6
 -6.6190617818731173E-02 a       287     0    15     1     7
  9.8107590138491435E-02 a       288     0    15     1     8
 -1.9238068933605978E-01 a       289     0    15     1     9
 -1.0295913056879389E+00 a       290     0    15     1    10
 -5.2732738095033815E-01 a       291     0    15     1    11
  3.8838880092709410E-01 a       292     0    15     1    12
  4.1819604660044685E-01 a       293     0    15     1    13
 -2.8329651309035914E-01 a       294     0    15     1    14
 -2.7590440947225370E-01 a       295     0    15     1    15
 -5.7912208038504538E-03 a       296     0    15     1    16
 -4.3137054586849294E-01 a       297     0    15     1    17
  6.5253287280164649E-02 a       298     0    15     1    18
  7.6240541498527292E-01 a       299     0    15     1    19
 -3.7207178925185230E-01 a       300     0    15     1    20
 -4.0763396694421528E-01 a       301     0    16     1     1
 -3.4609995833735924E-01 a       302     0    16     1     2
 -1.5980121226045172E-02 a       303     0    16     1     3
 -4.2064698329278633E-01 a       304     0    16     1     4
  5.9923134451200821E-01 a       305     0    16     1     5
  2.1177148222798461E-01 a       306     0    16     1     6
  4.0328706665710212E-01 a       307     0    16     1     7
 -6.8967359394527117E-01 a       308     0    16     1     8
  4.0737955054238839E-01 a       309     0    16     1     9
  1.1426605209017870E-01 a       310     0    16     1    10
  7.9036622513210711E-02 a       311     0    16     1    11
 -1.9806103146696014E-03 a       312     0    16     1    12
 -2.1170093951580499E-01 a       313     0    16     1    13
  5.0086076718370653E-01 a       314     0    16     1    14
  2.4286861413445696E-01 a       315     0    16     1    15
  2.4375943670818587E-01 a       316     0    16     1    16
  5.9814282463296176E-01 a       317     0    16     1    17
  1.1111808353396346E-01 a       318     0    16     1    18
  8.2487928448584366E-02 a       319     0    16     1    19
  2.5814314191026827E-01 a       320     0    16     1    20
 -2.6706098662464967E-01 a       321     0    17     1     1
  2.9909186963352941E-01 a       322     0    17     1     2
 -3.1385921877073730E-01 a       323     0    17     1     3
  1.3689808591002331E-01 a       324     0    17     1     4
  7.5079203173043077E-02 a       325     0    17     1     5
  1.0468151183283134E+00 a       326     0    17     1     6
  2.0147571643154819E-01 a       327     0    17     1     7
  1.8033660291734050E-02 a       328     0    17     1     8
  3.4856657317740886E-01 a       329     0    17     1     9
 -1.0954925841156098E+00 a       330     0    17     1    10
 -1.5221952801152314E+00 a       331     0    17     1    11
 -5.7986720399736191E-01 a       332     0    17     1    12
  1.9753344293666683E-01 a       333     0    17     1    13
 -8.1882099207025361E-01 a       334     0    17     1    14
 -5.4638164418286750E-01 a       335     0    17     1    15
 -1.3507584578045645E-01 a       336     0    17     1    16
  4.6500302289337159E-02 a       337     0    17     1    17
 -2.7849773550827756E-01 a       338     0    17     1    18
  9.8028949159453349E-01 a       339     0    17     1    19
 -3.4661600079560195E-01 a       340     0    17     1    20
 -6.6313395286449792E-02 a       341     0    18     1     1
 -3.2332412996096244E-01 a       342     0    18     1     2
 -1.9773783554260552E-01 a       343     0    18     1     3
 -5.9608723873889069E-01 a       344     0    18     1     4
  3.5637145607846088E-01 a       345     0    18     1     5
  4.7497164017853338E-01 a       346     0    18     1     6
  8.3386884247947796E-02 a       347     0    18     1     7
 -5.4568730472821902E-01 a       348     0    18     1     8
  1.4893072447791031E-01 a       349     0    18     1     9
  3.3953037298424260E-01 a       350     0    18     1    10
  2.5242967584193604E-01 a       351     0    18     1    11
 -3.8849657387961262E-01 a       352     0    18     1    12
 -2.8921737576148421E-01 a       353     0    18     1    13
  4.2166767600285887E-01 a       354     0    18     1    14
 -2.7969905875679688E-02 a       355     0    18     1    15
 -4.6087620647107690E-02 a       356     0    18     1    16
  2.7090662883405791E-02 a       357     0    18     1    17
 -9.1974919574175099E-02 a       358     0    18     1    18
 -3.8477533160199515E-02 a       359     0    18     1    19
  2.6220473444943043E-01 a       360     0    18     1    20
 -5.2315431683061964E-02 a       361     0    19     1     1
 -1.1099545859551035E-01 a       362     0    19     1     2
  9.6143038590511321E-02 a       363     0    19     1     3
 -4.0016372231701497E-01 a       364     0    19     1     4
  1.1992527568524722E+00 a       365     0    19     1     5
  1.7687421373957030E-01 a       366     0    19     1     6
 -2.1527485882870662E-01 a       367     0    19     1     7
  5.1023308477240059E-01 a       368     0    19     1     8
 -8.2054639769898663E-01 a       369     0    19     1     9
 -6.6437897960737557E-01 a       370     0    19     1    10
 -3.3770761622846762E-01 a       371     0    19     1    11
  3.8489198463605445E-01 a       372     0    19     1    12
  2.0129712117535239E+00 a       373     0    19     1    13
 -5.0370563415942322E-02 a       374     0    19     1    14
  7.7477795513965120E-01 a       375     0    19     1    15
  1.3240929963158456E+00 a       376     0    19     1    16
 -1.1776534667620484E+00 a       377     0    19     1    17
 -1.8847558487232494E-01 a       378     0    19     1    18
 -5.3194478359983866E-01 a       379     0    19     1    19
 -6.3584498016460855E-01 a       380     0    19     1    20
  1.0156654655346826E-02 a       381     0    20     1     1
 -1.8024943291734832E-02 a       382     0    20     1     2
  7.2928778249257742E-01 a       383     0    20     1     3
  1.3756643003003348E-02 a       384     0    20     1     4
 -9.2554623816525614E-02 a       385     0    20     1     5
  3.7008336813601761E-01 a       386     0    20     1     6
  5.3909449907768825E-01 a       387     0    20     1     7
  3.6475487363775073E-02 a       388     0    20     1     8
 -1.3615433444219691E-01 a       389     0    20     1     9
 -3.8955702237326928E-01 a       390     0    20     1    10
 -1.0451008980805434E+00 a       391     0    20     1    11
 -2.7576547473159164E-02 a       392     0    20     1    12
 -8.4841761336216726E-01 a       393     0    20     1    13
  1.0720563279191249E-01 a       394     0    20     1    14
 -7.6586561792575780E-02 a       395     0    20     1    15
  3.7863634402032714E-01 a       396     0    20     1    16
 -4.1246452054140631E-01 a       397     0    20     1    17
 -3.5548955744623023E-02 a       398     0    20     1    18
 -7.1723635618990811E-01 a       399     0    20     1    19
 -2.2709728134017605E-02 a       400     0    20     1    20
  5.8740697867321756E-01 a       401     0    21     1     1
  1.2897191891835824E+00 a       402     0    21     1     2
 -7.7036106959343009E-01 a       403     0    21     1     3
 -5.8738094180753508E-01 a       404     0    21     1     4
  7.1749823812328306E-01 a       405     0    21     1     5
 -8.1264660031222302E-01 a       406     0    21     1     6
 -2.5199300723894091E-01 a       407     0    21     1     7
 -1.3890437689003696E+00 a       408     0    21     1     8
 -1.0942801045087833E+00 a       409     0    21     1     9
  1.4418923970855637E+00 a       410     0    21     1    10
  8.1317925383469725E-01 a       411     0    21     1    11
  1.8955466746426000E+00 a       412     0    21     1    12
  6.5200356088230882E-01 a       413     0    21     1    13
  2.5778386639997930E-01 a       414     0    21     1    14
 -2.0546648711481222E-01 a       415     0    21     1    15
 -1.4874008301979547E-01 a       416     0    21     1    16
 -1.0651372545419806E+00 a       417     0    21     1    17
 -5.4314726688630277E-01 a       418     0    21     1    18
 -2.3432671258059110E+00 a       419     0    21     1    19
 -1.8230629245292087E+00 a       420     0    21     1    20
 -4.7652639512170497E-01 a       421     0    22     1     1
  4.8216815051505385E-01 a       422     0    22     1     2
 -1.2350085407787857E-01 a       423     0    22     1     3
 -2.9602065734857125E-01 a       424     0    22     1     4
 -3.6697562499892661E-01 a       425     0    22     1     5
  8.3699856558171726E-01 a       426     0    22     1     6
 -2.6654868865802711E-01 a       427     0    22     1     7
 -5.7498298141127857E-01 a       428     0    22     1     8
  5.7330000666133855E-02 a       429     0    22     1     9
 -6.7226189064664943E-01 a       430     0    22     1    10
 -2.5919102919781423E-01 a       431     0    22     1    11
  1.0010951132653960E+00 a       432     0    22     1    12
  2.9185649489425675E-01 a       433     0    22     1    13
  2.8319828536557645E-01 a       434     0    22     1    14
  2.5700969872960588E-01 a       435     0    22     1    15
 -2.8237704074837799E-01 a       436     0    22     1    16
  2.6439473899625188E-01 a       437     0    22     1    17
  1.6085029815882618E-01 a       438     0    22     1    18
  2.2106585916702345E-01 a       439     0    22     1    19
 -5.2457356449101178E-01 a       440     0    22     1    20
  2.0086382919586476E-02 a       441     0    23     1     1
 -2.4093578617910341E-01 a       442     0    23     1     2
 -1.0637999167006513E+00 a       443     0    23     1     3
  2.6827210506622530E+00 a       444     0    23     1     4
 -4.5218889520163348E+00 a       445     0    23     1     5
 -3.4770402087778551E-01 a       446     0    23     1     6
 -4.6838633902599097E-01 a       447     0    23     1     7
 -7.5307167658859742E-01 a       448     0    23     1     8
  1.5497133343696083E+00 a       449     0    23     1     9
  2.0539834883857195E+00 a       450     0    23     1    10
 -2.6588782515401288E-01 a       451     0    23     1    11
 -3.6547700790266751E+00 a       452     0    23     1    12
 -9.5501044310519945E-01 a       453     0    23     1    13
  4.6326446106219978E-02 a       454     0    23     1    14
 -1.8001785863669288E+00 a       455     0    23     1    15
 -2.6416055345099378E+00 a       456     0    23     1    16
  2.1952594004049000E+00 a       457     0    23     1    17
 -2.7488931174182496E+00 a       458     0    23     1    18
 -1.4499106814168084E-03 a       459     0    23     1    19
 -9.9005267232016314E-01 a       460     0    23     1    20
  2.4965776398565436E+00 a       461     0    24     1     1
 -7.1949656318700261E-01 a       462     0    24     1     2
 -3.4099284081355234E+00 a       463     0    24     1     3
  3.7267131451341231E+00 a       464     0    24     1     4
 -1.7862446528739078E+00 a       465     0    24     1     5
 -2.2821411700245462E+00 a       466     0    24     1     6
 -5.2383425278452496E+00 a       467     0    24     1     7
  2.3047368868825928E+00 a       468     0    24     1     8
  2.9536269985051873E+00 a       469     0    24     1     9
  1.6303996677855090E+00 a       470     0    24     1    10
  1.5191771045894862E+00 a       471     0    24     1    11
 -1.2307686170807377E+00 a       472     0    24     1    12
  3.3080142316253611E+00 a       473     0    24     1    13
  1.2244812163991505E+00 a       474     0    24     1    14
  1.9155435556207518E+00 a       475     0    24     1    15
 -4.8607601369073317E+00 a       476     0    24     1    16
 -1.5345837572731189E+00 a       477     0    24     1    17
 -3.2653066752723507E+00 a       478     0    24     1    18
  3.3574787658808773E+00 a       479     0    24     1    19
  1.7139706043096665E+00 a       480     0    24     1    20
  9.5377173715778280E-02 a       481     0    25     1     1
  2.6024491366262409E-01 a       482     0    25     1     2
  5.4038955378961584E-01 a       483     0    25     1     3
  1.1596028685672168E+00 a       484     0    25     1     4
  6.0389143288434227E-02 a       485     0    25     1     5
 -9.5216069429780503E-01 a       486     0    25     1     6
 -4.8253949506044258E-01 a       487     0    25     1     7
  2.0055664925063935E-01 a       488     0    25     1     8
  3.0689262031369341E-01 a       489     0    25     1     9
  8.8231450453605298E-01 a       490     0    25     1    10
  1.8908753482576734E+00 a       491     0    25     1    11
  8.8560777828875836E-01 a       492     0    25     1    12
  5.3796454481945943E-01 a       493     0    25     1    13
  1.7588029144154499E-01 a       494     0    25     1    14
 -2.4009604816352464E-01 a       495     0    25     1    15
 -1.0180910263780776E+00 a       496     0    25     1    16
 -1.2425472309379189E-01 a       497     0    25     1    17
  3.2184633244696570E-01 a       498     0    25     1    18
 -7.9144616019618452E-01 a       499     0    25     1    19
  4.3730284245941342E-01 a       500     0    25     1    20
 -2.5340368688006998E-01 a       501     0    26     1     1
  3.5390650426775844E-01 a       502     0    26     1     2
  6.4303111291241125E-02 a       503     0    26     1     3
 -7.3571936335004995E-01 a       504     0    26     1     4
  6.1226742506712040E-01 a       505     0    26     1     5
  1.1632672887568734E+00 a       506     0    26     1     6
 -6.2089567343443147E-02 a       507     0    26     1     7
 -4.6476235401165256E-01 a       508     0    26     1     8
 -1.2884299282652401E-01 a       509     0    26     1     9
  3.6821840040698200E-01 a       510     0    26     1    10
  8.6067639710877011E-02 a       511     0    26     1    11
  7.2093945818641902E-01 a       512     0    26     1    12
 -5.5552861197663637E-02 a       513     0    26     1    13
  3.5275177854965190E-01 a       514     0    26     1    14
 -1.2717738214442570E-01 a       515     0    26     1    15
 -5.0370890309819649E-01 a       516     0    26     1    16
  4.2051019172233367E-01 a       517     0    26     1    17
 -1.2023704286656229E+00 a       518     0    26     1    18
  2.1136813829621889E-01 a       519     0    26     1    19
  6.1556520093590583E-01 a       520     0    26     1    20
 -9.4460792506285474E-01 a       521     0    27     1     1
 -2.1512723738902395E-01 a       522     0    27     1     2
 -1.2981414801510689E+00 a       523     0    27     1     3
 -1.1730169576848348E+00 a       524     0    27     1     4
  3.2611357969923532E-01 a       525     0    27     1     5
  7.5769302038784747E-01 a       526     0    27     1     6
  9.9800865582697584E-01 a       527     0    27     1     7
  1.9672429605788282E+00 a       528     0    27     1     8
 -6.6370124135617914E-01 a       529     0    27     1     9
 -1.3339359375905719E+00 a       530     0    27     1    10
  7.5510781193604992E-01 a       531     0    27     1    11
  1.1965474435618240E+00 a       532     0    27     1    12
 -1.1833749049189024E+00 a       533     0    27     1    13
 -3.2419608932705163E-01 a       534     0    27     1    14
  1.8620821820728364E+00 a       535     0    27     1    15
  1.3046245521694013E+00 a       536     0    27     1    16
  9.1707871387719220E-01 a       537     0    27     1    17
 -1.1833656485845934E+00 a       538     0    27     1    18
  6.7330338436785975E-01 a       539     0    27     1    19
 -1.5521446736831188E+00 a       540     0    27     1    20
 -8.1790422066739765E-01 a       541     0    28     1     1
  4.5430024304959398E+00 a       542     0    28     1     2
  1.4797094234619518E-01 a       543     0    28     1     3
 -1.5704290289515390E+00 a       544     0    28     1     4
 -1.1614781161056797E+00 a       545     0    28     1     5
 -2.3516254114612559E-01 a       546     0    28     1     6
  7.8892740442979125E-03 a       547     0    28     1     7
  1.4239226593638699E+00 a       548     0    28     1     8
 -8.6282679922011862E-01 a       549     0    28     1     9
 -3.3788119631839124E+00 a       550     0    28     1    10
  2.3969702575397069E-02 a       551     0    28     1    11
  9.2904374694471370E-01 a       552     0    28     1    12
 -5.1451678807740731E-01 a       553     0    28     1    13
 -8.5344119715116840E-01 a       554     0    28     1    14
 -2.3243218911147205E+00 a       555     0    28     1    15
  1.0679446136856687E+00 a       556     0    28     1    16
 -1.1406086614463178E+00 a       557     0    28     1    17
  1.3509733685601424E+00 a       558     0    28     1    18
 -1.0387474982795635E+00 a       559     0    28     1    19
  1.7186237287480475E+00 a       560     0    28     1    20
  7.6410986905119904E-01 a       561     0    29     1     1
  1.1988131360726419E+00 a       562     0    29     1     2
  5.9628658811562518E-01 a       563     0    29     1     3
 -5.9486220117493480E-02 a       564     0    29     1     4
  8.0296676181542026E-01 a       565     0    29     1     5
  1.0515013365161350E+00 a       566     0    29     1     6
 -1.9969868099436458E-01 a       567     0    29     1     7
 -1.2042389056835918E+00 a       568     0    29     1     8
 -1.1927783262280175E-01 a       569     0    29     1     9
 -7.5790338309253424E-01 a       570     0    29     1    10
  1.4191648422243308E+00 a       571     0    29     1    11
  8.4866080708785918E-01 a       572     0    29     1    12
  1.4899927400114061E+00 a       573     0    29     1    13
  3.4470943088213568E-01 a       574     0    29     1    14
  1.6687307062804677E-01 a       575     0    29     1    15
  8.3246200947075466E-02 a       576     0    29     1    16
 -3.5078192181966866E-01 a       577     0    29     1    17
 -1.3042652794573546E+00 a       578     0    29     1    18
 -8.3005334336009140E-01 a       579     0    29     1    19
 -1.2658201114598973E+00 a       580     0    29     1    20
 -1.1478847371764096E+00 a       581     0    30     1     1
  1.2803809867488027E+00 a       582     0    30     1     2
  3.7426737249874498E-02 a       583     0    30     1     3
 -8.4430713030039650E-01 a       584     0    30     1     4
 -3.5309230659616213E-02 a       585     0    30     1     5
  2.0142000191364272E-02 a       586     0    30     1     6
  1.1604610641684954E+00 a       587     0    30     1     7
  2.6075519885913662E-01 a       588     0    30     1     8
 -4.2169156013309943E-02 a       589     0    30     1     9
  1.2519312698139609E-01 a       590     0    30     1    10
  6.0445347635848012E-01 a       591     0    30     1    11
 -7.9641557334255564E-01 a       592     0    30     1    12
 -1.1637111050394962E+00 a       593     0    30     1    13
  1.5823035746785513E-01 a       594     0    30     1    14
 -2.0108652693621654E+00 a       595     0    30     1    15
  1.2655139328353906E+00 a       596     0    30     1    16
  1.0762668629993459E+00 a       597     0    30     1    17
 -2.9513738103733131E+00 a       598     0    30     1    18
  1.2860734586474387E-01 a       599     0    30     1    19
  9.9543681530734462E-01 a       600     0    30     1    20
 -4.3278339566041552E-01 a       601     0    31     1     1
  2.7116459843425700E-01 a       602     0    31     1     2
  2.6476407431325544E-01 a       603     0    31     1     3
  9.9836121603323114E-01 a       604     0    31     1     4
  1.1522194970005200E+00 a       605     0    31     1     5
  4.7119866351116535E-02 a       606     0    31     1     6
  6.5975842633118642E-01 a       607     0    31     1     7
 -3.3089417696570028E-01 a       608     0    31     1     8
  6.5287251726215012E-01 a       609     0    31     1     9
  7.3855634033461848E-01 a       610     0    31     1    10
  9.3469442836502858E-01 a       611     0    31     1    11
 -2.4988042796522542E-01 a       612     0    31     1    12
 -3.2048868280467629E-01 a       613     0    31     1    13
 -2.3712850973472110E-01 a       614     0    31     1    14
  1.7975619873148713E-01 a       615     0    31     1    15
 -4.4343267711414547E-01 a       616     0    31     1    16
  7.1101352772451087E-01 a       617     0    31     1    17
 -5.1732884024702575E-01 a       618     0    31     1    18
 -1.5187747858219323E+00 a       619     0    31     1    19
  1.3215058784740405E-01 a       620     0    31     1    20
  1.5821088419434781E-01 a       621     0    32     1     1
 -5.4533257293514337E-01 a       622     0    32     1     2
 -2.9299132979041052E-03 a       623     0    32     1     3
 -6.5336045509071561E-01 a       624     0    32     1     4
 -4.8100947644779418E-01 a       625     0    32     1     5
  8.0836088825857244E-01 a       626     0    32     1     6
  3.1112387538935005E-01 a       627     0    32     1     7
  6.7769692086411115E-01 a       628     0    32     1     8
  1.1177946696888410E+00 a       629     0    32     1     9
  9.5627116513003019E-01 a       630     0    32     1    10
  3.9387831621639641E-01 a       631     0    32     1    11
 -1.2588817798888137E+00 a       632     0    32     1    12
 -2.8834151219568549E-01 a       633     0    32     1    13
  4.3478282824480524E-01 a       634     0    32     1    14
 -6.5265444268204054E-01 a       635     0    32     1    15
 -6.1399422182324664E-02 a       636     0    32     1    16
  1.0954221642537028E+00 a       637     0    32     1    17
 -2.7321339435116769E+00 a       638     0    32     1    18
 -4.6257853506752417E-01 a       639     0    32     1    19
  1.9474172770715939E-01 a       640     0    32     1    20
  9.4188568627093863E-02 a       641     0    33     1     1
  3.4731474994514505E-01 a       642     0    33     1     2
  1.4709535640962207E-01 a       643     0    33     1     3
  3.2974503525393839E-01 a       644     0    33     1     4
  3.9397839286995401E-01 a       645     0    33     1     5
 -5.9407453601352567E-01 a       646     0    33     1     6
  3.4348727456171074E-03 a       647     0    33     1     7
 -8.4866480607347394E-01 a       648     0    33     1     8
 -1.5275926192989242E-01 a       649     0    33     1     9
  1.0839826930259846E+00 a       650     0    33     1    10
  9.0883227630053987E-01 a       651     0    33     1    11
  1.2454478665941235E-01 a       652     0    33     1    12
  2.7234204351292299E-02 a       653     0    33     1    13
  2.6331828503559113E-01 a       654     0    33     1    14
  3.6742879557679364E-01 a       655     0    33     1    15
 -1.6899173591879510E-01 a       656     0    33     1    16
  7.4001809703821572E-02 a       657     0    33     1    17
 -1.7180988018008450E-01 a       658     0    33     1    18
 -1.3656653668592338E+00 a       659     0    33     1    19
  4.5406174640104591E-01 a       660     0    33     1    20
  5.9295972291334209E-01 a       661     0    34     1     1
  5.5987959852294288E-02 a       662     0    34     1     2
 -1.0605529560038722E-01 a       663     0    34     1     3
 -7.4633562606283543E-01 a       664     0    34     1     4
 -2.2302744588835480E-02 a       665     0    34     1     5
  3.5207223741323057E-01 a       666     0    34     1     6
 -1.0702994497470886E+00 a       667     0    34     1     7
 -1.7912340035466436E+00 a       668     0    34     1     8
  3.8330780033162726E-01 a       669     0    34     1     9
  3.8828476871884615E-01 a       670     0    34     1    10
 -4.6082770487321512E-03 a       671     0    34     1    11
  6.1345036113431076E-02 a       672     0    34     1    12
  8.8624814629552850E-02 a       673     0    34     1    13
  4.7784607138352156E-02 a       674     0    34     1    14
  3.2576018707999216E-01 a       675     0    34     1    15
 -8.7798314380357867E-01 a       676     0    34     1    16
 -4.8854756536466165E-01 a       677     0    34     1    17
  6.5087603006606071E-02 a       678     0    34     1    18
 -3.4633138283858424E-02 a       679     0    34     1    19
 -7.4192916296353523E-02 a       680     0    34     1    20
 -1.9226668247782719E-01 a       681     0    35     1     1
  3.2754998119512109E-02 a       682     0    35     1     2
  1.3267092779815683E+00 a       683     0    35     1     3
 -2.6683145333239353E+00 a       684     0    35     1     4
  4.9914918304143816E+00 a       685     0    35     1     5
  6.8630663096924491E-02 a       686     0    35     1     6
  6.3746853107942902E-01 a       687     0    35     1     7
  1.0123260648479868E+00 a       688     0    35     1     8
 -1.9276657947482363E+00 a       689     0    35     1     9
 -2.3940136675335428E+00 a       690     0    35     1    10
  1.8483016633316199E-01 a       691     0    35     1    11
  3.8456273551527662E+00 a       692     0    35     1    12
  1.2478960324466919E+00 a       693     0    35     1    13
 -2.1892959103392373E-01 a       694     0    35     1    14
  1.7044263476367365E+00 a       695     0    35     1    15
  2.8293734359814859E+00 a       696     0    35     1    16
 -2.4068340081470976E+00 a       697     0    35     1    17
  2.9373251832957803E+00 a       698     0    35     1    18
 -2.3105712036025361E-01 a       699     0    35     1    19
  9.3395566921496143E-01 a       700     0    35     1    20
 -2.3286471319300399E+00 a       701     0    36     1     1
  3.8508143560304331E-01 a       702     0    36     1     2
  4.1907890102297261E+00 a       703     0    36     1     3
 -4.5023407742336348E+00 a       704     0    36     1     4
  1.0384984705224667E+00 a       705     0    36     1     5
  2.1639416655604764E+00 a       706     0    36     1     6
  5.3625415365310483E+00 a       707     0    36     1     7
 -2.6905374756443909E+00 a       708     0    36     1     8
 -1.8687954976003176E+00 a       709     0    36     1     9
 -1.4294275964921035E+00 a       710     0    36     1    10
 -1.8300909556891951E+00 a       711     0    36     1    11
  1.3717884816260613E+00 a       712     0    36     1    12
 -2.7388316265533930E+00 a       713     0    36     1    13
 -1.5221175381588619E+00 a       714     0    36     1    14
 -1.8409510404797764E+00 a       715     0    36     1    15
  3.6485779846772095E+00 a       716     0    36     1    16
  1.6513699690223413E+00 a       717     0    36     1    17
  2.8305259882623517E+00 a       718     0    36     1    18
 -3.3988770279340232E+00 a       719     0    36     1    19
 -2.1219349882260015E+00 a       720     0    36     1    20
  3.0046061190211266E+00 a       721     0    37     1     1
 -1.5510380016200518E+00 a       722     0    37     1     2
  5.9685646073219989E-01 a       723     0    37     1     3
  1.1867380929971405E+00 a       724     0    37     1     4
  1.0011985419414142E+00 a       725     0    37     1     5
 -1.6916268084892359E+00 a       726     0    37     1     6
 -5.0577214758247291E-01 a       727     0    37     1     7
  7.1172625901598285E-01 a       728     0    37     1     8
 -2.8496523970593191E-01 a       729     0    37     1     9
  4.4433959855949434E-01 a       730     0    37     1    10
  7.3944206550463687E-01 a       731     0    37     1    11
  9.6838259399892368E-01 a       732     0    37     1    12
  1.8054811970069211E+00 a       733     0    37     1    13
  4.9958364481582879E-01 a       734     0    37     1    14
 -2.7717819745573817E+00 a       735     0    37     1    15
  2.9266989514608593E-01 a       736     0    37     1    16
 -1.3043013583108560E+00 a       737     0    37     1    17
  1.8480279083676692E+00 a       738     0    37     1    18
 -2.3203952176724479E-01 a       739     0    37     1    19
  2.8467479411389416E+00 a       740     0    37     1    20
 -1.0259256500993268E+00 a       741     0    38     1     1
 -2.9838791175533346E+00 a       742     0    38     1     2
  1.0247147140968897E+00 a       743     0    38     1     3
 -1.5859217138632182E+00 a       744     0    38     1     4
  1.6030178110647550E+00 a       745     0    38     1     5
  9.2998391094083976E-01 a       746     0    38     1     6
 -2.1673131842066748E-01 a       747     0    38     1     7
 -2.3506578989899181E+00 a       748     0    38     1     8
  1.5541365556437878E+00 a       749     0    38     1     9
 -2.0099249161888683E-01 a       750     0    38     1    10
 -6.4046851664616766E-01 a       751     0    38     1    11
  7.4706278484605271E-01 a       752     0    38     1    12
  6.5267068706722486E-01 a       753     0    38     1    13
  1.8034263332199749E+00 a       754     0    38     1    14
  2.2345922160447693E+00 a       755     0    38     1    15
 -1.7813737855012295E+00 a       756     0    38     1    16
  1.6995493999431568E+00 a       757     0    38     1    17
  2.3764230943726878E+00 a       758     0    38     1    18
  2.3205450190399293E-01 a       759     0    38     1    19
 -1.7966270111155933E+00 a       760     0    38     1    20
  1.7979316097285175E-01 a       761     0    39     1     1
 -3.4031365202675246E-01 a       762     0    39     1     2
 -1.7804214987518957E-01 a       763     0    39     1     3
  7.3174167274384888E-02 a       764     0    39     1     4
  8.7450049022632745E-02 a       765     0    39     1     5
 -3.8094852970380844E-01 a       766     0    39     1     6
 -1.2936880787972435E-01 a       767     0    39     1     7
  3.8049993420049422E-01 a       768     0    39     1     8
 -3.7996086736124762E-01 a       769     0    39     1     9
 -1.7066519681956094E-01 a       770     0    39     1    10
 -5.2541887895701544E-01 a       771     0    39     1    11
  2.7434817013515495E-01 a       772     0    39     1    12
  3.3126544401753216E-01 a       773     0    39     1    13
 -4.7686181691531965E-02 a       774     0    39     1    14
 -4.0719720519012216E-02 a       775     0    39     1    15
  9.3604511996074516E-02 a       776     0    39     1    16
 -4.1117357085251827E-01 a       777     0    39     1    17
  1.9512634429443132E-01 a       778     0    39     1    18
  2.8533146629177053E-01 a       779     0    39     1    19
  3.2256078847532188E-01 a       780     0    39     1    20
 -1.7418099095379289E-01 a       781     0    40     1     1
 -4.3903786582441295E-01 a       782     0    40     1     2
 -6.2550071238609908E-02 a       783     0    40     1     3
 -5.1836704637814535E-01 a       784     0    40     1     4
  5.3331136289841277E-02 a       785     0    40     1     5
  7.2058637515788471E-01 a       786     0    40     1     6
 -2.1575853197342801E-01 a       787     0    40     1     7
 -1.6725047064613081E+00 a       788     0    40     1     8
  1.6431646500164304E-01 a       789     0    40     1     9
 -4.4293185380161404E-01 a       790     0    40     1    10
 -1.8426475338738565E-01 a       791     0    40     1    11
  7.2040976174974281E-01 a       792     0    40     1    12
  6.0279868268086047E-02 a       793     0    40     1    13
  6.4392567360272435E-01 a       794     0    40     1    14
  1.0120118906223134E+00 a       795     0    40     1    15
 -7.8399493414494004E-01 a       796     0    40     1    16
  9.8611287581122464E-01 a       797     0    40     1    17
  1.5812827002639864E+00 a       798     0    40     1    18
  4.6006208178248614E-01 a       799     0    40     1    19
 -1.7884946546322175E-01 a       800     0    40     1    20
 -9.4509402148951469E-02 a       801     0    41     1     1
 -1.4216408469075476E-01 a       802     0    41     1     2
  3.4293459652538960E-01 a       803     0    41     1     3
 -8.1726081013691232E-01 a       804     0    41     1     4
 -3.7455966940165125E-01 a       805     0    41     1     5
 -5.5146032046736360E-01 a       806     0    41     1     6
 -6.6462345586051463E-01 a       807     0    41     1     7
  4.2172498855083701E-02 a       808     0    41     1     8
 -1.1824648389387304E+00 a       809     0    41     1     9
 -3.4499035559294072E-01 a       810     0    41     1    10
  1.4386878135690989E-01 a       811     0    41     1    11
  6.2775453226396627E-01 a       812     0    41     1    12
  9.1000667111662414E-01 a       813     0    41     1    13
  3.5419282409083191E-01 a       814     0    41     1    14
  1.9357252076374312E-02 a       815     0    41     1    15
 -3.2861940329512770E-02 a       816     0    41     1    16
 -8.0712192146827633E-01 a       817     0    41     1    17
  3.4705883175007612E-01 a       818     0    41     1    18
  7.2311189188811087E-01 a       819     0    41     1    19
 -8.3428030366691469E-02 a       820     0    41     1    20
 -4.2221840855839565E-01 a       821     0    42     1     1
 -2.1608284334512429E-01 a       822     0    42     1     2
  1.8598934187212371E-01 a       823     0    42     1     3
  1.3839384133851071E-01 a       824     0    42     1     4
  2.6870597836700488E-01 a       825     0    42     1     5
 -2.6473210514303497E-01 a       826     0    42     1     6
  4.5059758863840046E-02 a       827     0    42     1     7
 -1.0335175622396577E+00 a       828     0    42     1     8
 -3.5753215405402339E-01 a       829     0    42     1     9
 -7.0926518243149117E-01 a       830     0    42     1    10
 -6.0990379177976950E-01 a       831     0    42     1    11
  9.9403091292471857E-01 a       832     0    42     1    12
 -5.4660844080207396E-02 a       833     0    42     1    13
  1.4659849438579464E-01 a       834     0    42     1    14
  8.8233824810479733E-01 a       835     0    42     1    15
  5.0638868022161643E-01 a       836     0    42     1    16
  2.1924253238326391E-01 a       837     0    42     1    17
  2.2296230681553948E+00 a       838     0    42     1    18
  7.1170129552266492E-01 a       839     0    42     1    19
  2.1840245402671946E-01 a       840     0    42     1    20
 -3.4605020000965370E-01 a       841     0    43     1     1
 -4.5976184669964193E-01 a       842     0    43     1     2
  4.0871732281334028E-01 a       843     0    43     1     3
 -1.5012057921534036E-01 a       844     0    43     1     4
 -2.4294092566494445E-02 a       845     0    43     1     5
 -6.5426521076329236E-01 a       846     0    43     1     6
 -3.7422969454841504E-01 a       847     0    43     1     7
  6.6534016261605056E-01 a       848     0    43     1     8
 -4.6503057947643572E-01 a       849     0    43     1     9
 -1.3688289376166240E-02 a       850     0    43     1    10
  7.6906050213387955E-01 a       851     0    43     1    11
  4.4288398514981742E-01 a       852     0    43     1    12
  5.7255480581334472E-01 a       853     0    43     1    13
  3.5855410257409176E-01 a       854     0    43     1    14
  5.0097755497154089E-02 a       855     0    43     1    15
  5.2877455769710657E-01 a       856     0    43     1    16
 -3.5917548202764771E-01 a       857     0    43     1    17
  3.1145245717395642E-01 a       858     0    43     1    18
  3.3363835790662361E-01 a       859     0    43     1    19
 -2.5193874567847546E-01 a       860     0    43     1    20
 -5.1211934125616210E-01 a       861     0    44     1     1
 -6.0046186045754080E-01 a       862     0    44     1     2
  2.5197615690757025E-01 a       863     0    44     1     3
  1.2061045193197963E+00 a       864     0    44     1     4
  2.7898881609219350E-01 a       865     0    44     1     5
 -3.6982309149218151E-01 a       866     0    44     1     6
  1.2473966920341051E+00 a       867     0    44     1     7
  1.2473434391370599E+00 a       868     0    44     1     8
  1.8532888755285123E-01 a       869     0    44     1     9
 -4.8513975294715234E-01 a       870     0    44     1    10
 -3.3588034575013276E-01 a       871     0    44     1    11
 -4.4597715713405139E-01 a       872     0    44     1    12
 -1.3561996855790437E-01 a       873     0    44     1    13
  4.2555786888131157E-02 a       874     0    44     1    14
  2.1597902989304105E-01 a       875     0    44     1    15
  1.1650053504413702E+00 a       876     0    44     1    16
  1.1075950351121138E+00 a       877     0    44     1    17
  7.7161678836054404E-01 a       878     0    44     1    18
  4.5676791939495733E-02 a       879     0    44     1    19
  2.5648385117555106E-01 a       880     0    44     1    20
  5.3568907119140601E+00 a       881     0    45     1     1
  4.8226491782893399E+00 a       882     0    45     1     2
  3.0318183661593410E+00 a       883     0    45     1     3
 -9.4892094561377238E-01 a       884     0    45     1     4
  1.9919188005243761E+01 a       885     0    45     1     5
  2.0282171783927381E+00 a       886     0    45     1     6
 -4.3276830135687305E+00 a       887     0    45     1     7
  7.0880843054186915E+00 a       888     0    45     1     8
  4.0672666820058083E+00 a       889     0    45     1     9
  5.9914049351363134E+00 a       890     0    45     1    10
  2.1715371345090486E+00 a       891     0    45     1    11
  9.5459302371400927E+00 a       892     0    45     1    12
 -6.8267457161195804E+00 a       893     0    45     1    13
 -6.0316752516899594E+00 a       894     0    45     1    14
 -1.4403754744406589E+01 a       895     0    45     1    15
  4.0378721766784906E+00 a       896     0    45     1    16
 -1.2195928560974151E+01 a       897     0    45     1    17
  6.4862378863003833E+00 a       898     0    45     1    18
 -9.8157502123008722E-01 a       899     0    45     1    19
 -1.0167755695470200E+00 a       900     0    45     1    20
  2.2465728835184926E+00 a       901     0    46     1     1
  2.2328048987277949E-01 a       902     0    46     1     2
  8.2612804404513496E-01 a       903     0    46     1     3
  1.9890728957556691E+00 a       904     0    46     1     4
  7.0551459498741851E+00 a       905     0    46     1     5
 -6.1570285037391848E-01 a       906     0    46     1     6
 -1.7404418780634441E+00 a       907     0    46     1     7
  1.2336246260056065E+00 a       908     0    46     1     8
  1.5984237983881626E+00 a       909     0    46     1     9
 -7.8962370304054474E-01 a       910     0    46     1    10
  7.2821353487106211E-01 a       911     0    46     1    11
  1.7226894720527967E-02 a       912     0    46     1    12
 -1.3539266886267545E-01 a       913     0    46     1    13
 -2.1893032971246935E+00 a       914     0    46     1    14
  2.8939944622779672E+00 a       915     0    46     1    15
  1.5152255719704473E+00 a       916     0    46     1    16
 -6.3041632349621701E-01 a       917     0    46     1    17
  1.4840168786962840E+00 a       918     0    46     1    18
 -9.0263486585886055E-01 a       919     0    46     1    19
 -4.0318852588897147E-01 a       920     0    46     1    20
  1.8582468008720496E+00 a       921     0    47     1     1
  1.2621904894482249E+01 a       922     0    47     1     2
 -1.5946592480310642E+00 a       923     0    47     1     3
 -5.0402919642648425E-01 a       924     0    47     1     4
 -1.1097536976756341E+00 a       925     0    47     1     5
 -6.5183906880177043E+00 a       926     0    47     1     6
 -1.9156277706933864E+00 a       927     0    47     1     7
  8.7007895686693981E+00 a       928     0    47     1     8
  7.1078717839243988E-01 a       929     0    47     1     9
  1.3896831535558787E+00 a       930     0    47     1    10
  4.4645485126361697E+00 a       931     0    47     1    11
  1.9035180807748551E+00 a       932     0    47     1    12
  2.5861188663944079E-01 a       933     0    47     1    13
  2.0656586901103879E+00 a       934     0    47     1    14
 -1.9004999235292843E+00 a       935     0    47     1    15
  5.4992717434909810E-01 a       936     0    47     1    16
 -2.1776405268998182E+00 a       937     0    47     1    17
  1.0454726163980807E-01 a       938     0    47     1    18
 -3.8074489621041865E+00 a       939     0    47     1    19
  5.6751433822523900E+00 a       940     0    47     1    20
  2.8116792220802873E+00 a       941     0    48     1     1
  1.5334995456753113E+01 a       942     0    48     1     2
 -1.6512206040660862E+00 a       943     0    48     1     3
  9.6813004468248740E-02 a       944     0    48     1     4
  1.0046353751507353E+00 a       945     0    48     1     5
  6.3210061995778659E+00 a       946     0    48     1     6
 -1.8921447785567518E+00 a       947     0    48     1     7
  2.9078172218845535E+00 a       948     0    48     1     8
  3.9916107010607411E+00 a       949     0    48     1     9
 -2.7487662219381450E+00 a       950     0    48     1    10
 -4.5085059055938070E-01 a       951     0    48     1    11
  7.7750461160334643E+00 a       952     0    48     1    12
  3.0095182244262730E+00 a       953     0    48     1    13
 -1.7144354056679848E+01 a       954     0    48     1    14
 -3.0468322819873044E+00 a       955     0    48     1    15
 -3.1637918828152295E-01 a       956     0    48     1    16
 -7.8950988619953417E+00 a       957     0    48     1    17
  2.7932793587172045E+00 a       958     0    48     1    18
 -1.8768904162400364E+00 a       959     0    48     1    19
  3.2588033626988864E+00 a       960     0    48     1    20
  9.8884653548560519E-02 a       961     0    49     1     1
 -7.4480738656226253E-01 a       962     0    49     1     2
  3.9246739486494979E+00 a       963     0    49     1     3
  8.4680446273053567E-01 a       964     0    49     1     4
  1.8871634015040712E+00 a       965     0    49     1     5
  1.0518606492637235E+00 a       966     0    49     1     6
 -2.3830386022984267E+00 a       967     0    49     1     7
  5.4681469883276901E-01 a       968     0    49     1     8
 -1.7479631128722484E+00 a       969     0    49     1     9
 -5.2498594566311914E+00 a       970     0    49     1    10
 -4.2971244098789596E-01 a       971     0    49     1    11
 -5.6398008309644165E-01 a       972     0    49     1    12
 -1.7033638959020960E+00 a       973     0    49     1    13
 -1.8103697258399594E+00 a       974     0    49     1    14
 -5.0536641541674978E+00 a       975     0    49     1    15
 -7.5989963008649131E-01 a       976     0    49     1    16
  9.8755838621638370E-01 a       977     0    49     1    17
  6.2418115365464732E-01 a       978     0    49     1    18
  1.4645175253497431E+00 a       979     0    49     1    19
 -8.9556879372634526E-02 a       980     0    49     1    20
 -4.4092672107355773E+00 a       981     0    50     1     1
 -2.1512156900950982E-01 a       982     0    50     1     2
  7.3188911520087863E-01 a       983     0    50     1     3
 -4.2542894863275243E-01 a       984     0    50     1     4
 -2.5912660066971998E+00 a       985     0    50     1     5
 -1.5916937078838227E+00 a       986     0    50     1     6
 -1.1998748738825997E+00 a       987     0    50     1     7
  2.8169062734859978E+00 a       988     0    50     1     8
  1.4488091749895644E+00 a       989     0    50     1     9
 -2.7539144591670115E+00 a       990     0    50     1    10
  1.2521311115831992E+00 a       991     0    50     1    11
 -1.0721103089032766E+00 a       992     0    50     1    12
  4.2969227511576937E+00 a       993     0    50     1    13
 -2.2044994972167511E+00 a       994     0    50     1    14
  1.4018424460939578E+00 a       995     0    50     1    15
  4.6510225695114316E-01 a       996     0    50     1    16
  3.9432292458121116E+00 a       997     0    50     1    17
 -5.0032495934356480E-01 a       998     0    50     1    18
 -4.6672120573313108E-01 a       999     0    50     1    19
  7.1430307474178134E-01 a      1000     0    50     1    20
  1.1942317110433556E+00 a      1001     0    51     1     1
 -2.9632984921306722E+00 a      1002     0    51     1     2
 -2.4559886188287376E+00 a      1003     0    51     1     3
  1.8661148857192553E+00 a      1004     0    51     1     4
 -9.3642975526195438E-01 a      1005     0    51     1     5
 -1.4753235377035738E+00 a      1006     0    51     1     6
  2.3544076870714354E+00 a      1007     0    51     1     7
  5.3130738017553494E+00 a      1008     0    51     1     8
 -6.7972169746326587E+00 a      1009     0    51     1     9
 -6.5457301812468560E-01 a      1010     0    51     1    10
 -5.4326322012578743E-01 a      1011     0    51     1    11
  1.4072223982812698E-01 a      1012     0    51     1    12
  4.5829694372627676E+00 a      1013     0    51     1    13
 -2.1108589347944604E+00 a      1014     0    51     1    14
 -4.9675282254973924E-01 a      1015     0    51     1    15
  4.4708888330272307E+00 a      1016     0    51     1    16
 -3.9865216711448861E+00 a      1017     0    51     1    17
  9.1422123738780812E+00 a      1018     0    51     1    18
 -3.2239330698452275E+00 a      1019     0    51     1    19
  8.3625777352148656E-01 a      1020     0    51     1    20
 -5.9365890576115710E-01 a      1021     0    52     1     1
  2.1473009812560102E+00 a      1022     0    52     1     2
 -1.5935058092581600E-01 a      1023     0    52     1     3
 -6.6558269947191884E-01 a      1024     0    52     1     4
  1.8094346319014478E+00 a      1025     0    52     1     5
  1.8099691040695126E-01 a      1026     0    52     1     6
 -1.9000436256892874E+00 a      1027     0    52     1     7
 -1.3665810323462766E+00 a      1028     0    52     1     8
  1.9365193617984384E+00 a      1029     0    52     1     9
 -1.2987058985128933E-01 a      1030     0    52     1    10
  1.2996550505542541E+00 a      1031     0    52     1    11
 -8.4924193005844961E-01 a      1032     0    52     1    12
  4.3632215499839182E+00 a      1033     0    52     1    13
  7.3932902178179161E-02 a      1034     0    52     1    14
  7.7205438724050468E-01 a      1035     0    52     1    15
 -1.3670223440394262E+00 a      1036     0    52     1    16
  1.9643039920383323E+00 a      1037     0    52     1    17
 -1.1572173349566006E+01 a      1038     0    52     1    18
  1.1828467769512974E+00 a      1039     0    52     1    19
 -8.8027732130822545E-01 a      1040     0    52     1    20
 -7.6097361889986603E-01 a      1041     0    53     1     1
 -8.9349834911219617E-01 a      1042     0    53     1     2
  2.0491203272156056E+00 a      1043     0    53     1     3
  3.2687061604975920E-01 a      1044     0    53     1     4
 -5.6110931857235402E-01 a      1045     0    53     1     5
  5.7382450765886839E-01 a      1046     0    53     1     6
 -1.1854117642750230E+00 a      1047     0    53     1     7
 -1.5434845440241279E-01 a      1048     0    53     1     8
 -1.9307962566405728E+00 a      1049     0    53     1     9
 -2.9020709722452493E+00 a      1050     0    53     1    10
  2.3721673964912107E-01 a      1051     0    53     1    11
 -7.1378579340215165E-01 a      1052     0    53     1    12
 -9.7531394966255192E-01 a      1053     0    53     1    13
 -3.4223973670300284E-01 a      1054     0    53     1    14
 -1.7648680418366434E+00 a      1055     0    53     1    15
 -6.4005622473865231E-01 a      1056     0    53     1    16
  1.2734707807149805E+00 a      1057     0    53     1    17
 -4.9305149528132208E-01 a      1058     0    53     1    18
 -1.1896400731954813E-01 a      1059     0    53     1    19
 -2.6778853191726987E-01 a      1060     0    53     1    20
 -4.1993945729877087E+00 a      1061     0    54     1     1
 -6.9648782516076446E-01 a      1062     0    54     1     2
  8.5910264550190896E-01 a      1063     0    54     1     3
 -1.0639980170534034E+00 a      1064     0    54     1     4
 -1.8045348655112161E+00 a      1065     0    54     1     5
 -1.5939347620858957E+00 a      1066     0    54     1     6
 -1.2987638618065613E+00 a      1067     0    54     1     7
  2.7254936394948026E+00 a      1068     0    54     1     8
  1.3082411640500824E+00 a      1069     0    54     1     9
 -2.5776436857351475E+00 a      1070     0    54     1    10
  7.3999673425220169E-01 a      1071     0    54     1    11
 -9.4464399534228138E-01 a      1072     0    54     1    12
  2.9082462678589844E+00 a      1073     0    54     1    13
 -1.0661816331508380E+00 a      1074     0    54     1    14
  1.0468679001614885E+00 a      1075     0    54     1    15
  1.4894382450500149E-01 a      1076     0    54     1    16
  3.7533736510924602E+00 a      1077     0    54     1    17
 -4.3128181694331064E-01 a      1078     0    54     1    18
 -9.1168899196684191E-03 a      1079     0    54     1    19
 -7.2812797717329431E-02 a      1080     0    54     1    20
 -2.6834912134749924E+00 a      1081     0    55     1     1
  1.1547679440890066E+00 a      1082     0    55     1     2
  1.4396582464325514E-01 a      1083     0    55     1     3
  1.9303164066344223E+00 a      1084     0    55     1     4
 -7.1194778951088482E+00 a      1085     0    55     1     5
 -2.8466654550173134E+00 a      1086     0    55     1     6
  5.3616598523474712E+00 a      1087     0    55     1     7
  5.0228679849852655E+00 a      1088     0    55     1     8
  4.2217356240963627E-01 a      1089     0    55     1     9
 -2.2589329542456069E-01 a      1090     0    55     1    10
 -4.3140041286219883E+00 a      1091     0    55     1    11
 -5.3969772143709784E+00 a      1092     0    55     1    12
  3.1645518543843991E+00 a      1093     0    55     1    13
 -5.3612706339150602E+00 a      1094     0    55     1    14
  1.6963363753960476E+00 a      1095     0    55     1    15
  3.6895440245577155E-01 a      1096     0    55     1    16
 -3.4397966120018038E+00 a      1097     0    55     1    17
  1.6664432166619708E-01 a      1098     0    55     1    18
 -2.9750759902319235E+00 a      1099     0    55     1    19
 -2.8413941833025536E-01 a      1100     0    55     1    20
 -9.1926357996423746E+00 a      1101     0    56     1     1
 -6.6102594383532676E+00 a      1102     0    56     1     2
 -2.8631600057194513E+00 a      1103     0    56     1     3
 -1.6574039516423196E+00 a      1104     0    56     1     4
 -1.1983312531226000E+01 a      1105     0    56     1     5
 -2.6309280748171826E+00 a      1106     0    56     1     6
  4.8272295088412784E+00 a      1107     0    56     1     7
 -1.5608448092083018E+00 a      1108     0    56     1     8
 -1.0067500745588273E+01 a      1109     0    56     1     9
 -3.5285193118808946E+00 a      1110     0    56     1    10
 -7.7967453648719298E-01 a      1111     0    56     1    11
 -7.4132812047713310E+00 a      1112     0    56     1    12
  7.5107738879916637E+00 a      1113     0    56     1    13
  5.5321597137098015E+00 a      1114     0    56     1    14
  1.9035104195792741E+01 a      1115     0    56     1    15
 -1.9669958244225805E+00 a      1116     0    56     1    16
  7.7262453125740844E+00 a      1117     0    56     1    17
 -3.1075019907983368E+00 a      1118     0    56     1    18
  3.5000296562214421E+00 a      1119     0    56     1    19
  3.1047050670575969E+00 a      1120     0    56     1    20
  3.5497692256646424E-01 a      1121     0    57     1     1
 -8.4690682416307145E-02 a      1122     0    57     1     2
 -1.0955205422928169E+00 a      1123     0    57     1     3
  1.2054271179339746E+00 a      1124     0    57     1     4
  7.6130952226894144E-01 a      1125     0    57     1     5
  1.8389442684403801E+00 a      1126     0    57     1     6
  2.8047692312333122E-01 a      1127     0    57     1     7
  1.1359542538611420E-01 a      1128     0    57     1     8
 -9.9037923507107641E-03 a      1129     0    57     1     9
 -1.5363216403370579E+00 a      1130     0    57     1    10
  1.0940397511115296E+00 a      1131     0    57     1    11
 -2.7611956170566754E+00 a      1132     0    57     1    12
 -8.7044988680956703E-01 a      1133     0    57     1    13
  5.9869844739474065E-01 a      1134     0    57     1    14
  1.3704577052899132E+00 a      1135     0    57     1    15
  9.4229684003511793E-01 a      1136     0    57     1    16
  7.7388168299017923E-01 a      1137     0    57     1    17
 -1.0302789950421530E-01 a      1138     0    57     1    18
 -2.7508475764747392E-01 a      1139     0    57     1    19
  1.0328914755930823E+00 a      1140     0    57     1    20
 -2.7531287126354100E+00 a      1141     0    58     1     1
 -4.7312173122076659E+00 a      1142     0    58     1     2
 -4.6589883771039997E-01 a      1143     0    58     1     3
 -1.8940797356825563E+00 a      1144     0    58     1     4
 -2.3791221573948818E-01 a      1145     0    58     1     5
  7.2173029979304797E+00 a      1146     0    58     1     6
  4.5870180100196540E+00 a      1147     0    58     1     7
 -1.8123178776851665E+00 a      1148     0    58     1     8
  1.7611666805660762E+00 a      1149     0    58     1     9
 -2.5842342065630177E+00 a      1150     0    58     1    10
 -6.5727963863708450E+00 a      1151     0    58     1    11
 -2.7097179908946378E+00 a      1152     0    58     1    12
 -4.6023178391847669E-01 a      1153     0    58     1    13
 -1.4783395143327311E+00 a      1154     0    58     1    14
  3.4766357604292941E+00 a      1155     0    58     1    15
  1.5514547801246562E-01 a      1156     0    58     1    16
  3.6928740937741558E+00 a      1157     0    58     1    17
 -1.0200437787317680E+00 a      1158     0    58     1    18
  3.5483533543659846E+00 a      1159     0    58     1    19
 -4.2708277134334631E+00 a      1160     0    58     1    20
  2.6168198334553834E+00 a      1161     0    59     1     1
  1.8737471912313353E+00 a      1162     0    59     1     2
  2.2342612229314827E+00 a      1163     0    59     1     3
 -2.2759361985199154E+00 a      1164     0    59     1     4
  3.6797379371833325E+00 a      1165     0    59     1     5
 -5.5276746081468975E+00 a      1166     0    59     1     6
  1.5769347336239958E+00 a      1167     0    59     1     7
 -5.9891896237499100E+00 a      1168     0    59     1     8
 -4.8398260940518529E+00 a      1169     0    59     1     9
  2.2564525225187291E+00 a      1170     0    59     1    10
 -3.5135350158312895E-01 a      1171     0    59     1    11
  3.4773222632512333E+00 a      1172     0    59     1    12
 -3.5797073344529990E+00 a      1173     0    59     1    13
  1.5586446912291905E+01 a      1174     0    59     1    14
  3.3424762337285139E+00 a      1175     0    59     1    15
 -7.8319129904150586E-01 a      1176     0    59     1    16
  2.8184443790639717E+00 a      1177     0    59     1    17
  5.1192765137824980E-01 a      1178     0    59     1    18
  3.1971390421077510E+00 a      1179     0    59     1    19
 -3.0513343308026717E+00 a      1180     0    59     1    20
 -1.0111761602218499E+00 a      1181     0    60     1     1
  6.7950939024829160E-01 a      1182     0    60     1     2
 -5.5404576540102193E+00 a      1183     0    60     1     3
 -1.6710526933092031E+00 a      1184     0    60     1     4
 -6.4740878580921892E+00 a      1185     0    60     1     5
 -1.0737075799330194E+00 a      1186     0    60     1     6
  4.7919269648364242E+00 a      1187     0    60     1     7
 -2.5143664729189337E+00 a      1188     0    60     1     8
  1.9486847205054187E+00 a      1189     0    60     1     9
  5.5776337445348139E+00 a      1190     0    60     1    10
 -6.7039487377953788E-01 a      1191     0    60     1    11
 -1.3272351092129550E-01 a      1192     0    60     1    12
  2.2514772952154831E+00 a      1193     0    60     1    13
  3.5580821046342153E+00 a      1194     0    60     1    14
  7.0124663426187110E+00 a      1195     0    60     1    15
  3.6908104066299169E-01 a      1196     0    60     1    16
  7.1631654351836427E-01 a      1197     0    60     1    17
 -5.8865925359308884E+00 a      1198     0    60     1    18
 -4.5159093207911249E+00 a      1199     0    60     1    19
 -1.6444212411816062E+00 a      1200     0    60     1    20
 -3.3074186984761331E+00 a      1201     0    61     1     1
 -1.0312059120911807E+00 a      1202     0    61     1     2
 -2.8422638512559140E-01 a      1203     0    61     1     3
 -2.5766500538443085E+00 a      1204     0    61     1     4
  7.9407534477762032E-01 a      1205     0    61     1     5
 -8.8075979030688900E-01 a      1206     0    61     1     6
 -3.3136354171288801E-01 a      1207     0    61     1     7
  2.1493655937984015E+00 a      1208     0    61     1     8
 -2.7971308208357576E-01 a      1209     0    61     1     9
 -1.0693083325188837E+00 a      1210     0    61     1    10
 -3.9278606162944862E-01 a      1211     0    61     1    11
 -1.7773232373801702E+00 a      1212     0    61     1    12
 -2.7942672840174954E+00 a      1213     0    61     1    13
  2.9976652676416782E+00 a      1214     0    61     1    14
 -2.7135615536308799E-01 a      1215     0    61     1    15
 -1.9739303295626479E-01 a      1216     0    61     1    16
  3.8942222190372449E+00 a      1217     0    61     1    17
 -4.5023858903774427E-01 a      1218     0    61     1    18
  1.2065762765674333E+00 a      1219     0    61     1    19
 -3.3478751584813486E+00 a      1220     0    61     1    20
  2.9716326929741516E-01 a      1221     0    62     1     1
 -2.0479559749788194E+00 a      1222     0    62     1     2
  5.1730298891039406E-01 a      1223     0    62     1     3
 -2.5287663826124646E-01 a      1224     0    62     1     4
  2.6104244454340022E+00 a      1225     0    62     1     5
  1.3009253407017871E-01 a      1226     0    62     1     6
  1.5683384425976123E+00 a      1227     0    62     1     7
  2.4384290427882229E+00 a      1228     0    62     1     8
 -1.4513945768114260E+00 a      1229     0    62     1     9
 -1.3895159602204468E+00 a      1230     0    62     1    10
 -7.3105588657250842E-01 a      1231     0    62     1    11
 -1.4603930333677257E+00 a      1232     0    62     1    12
 -1.2071222071527137E+00 a      1233     0    62     1    13
  1.2286837067378842E+00 a      1234     0    62     1    14
  7.9943578142762306E-01 a      1235     0    62     1    15
  2.9790020788732789E+00 a      1236     0    62     1    16
 -1.0291202705471329E-01 a      1237     0    62     1    17
  4.5930850933032268E+00 a      1238     0    62     1    18
  1.0352612733879585E+00 a      1239     0    62     1    19
 -3.2260690495390678E+00 a      1240     0    62     1    20
  1.5904722737430632E-01 a      1241     0    63     1     1
 -2.7078961689536509E+00 a      1242     0    63     1     2
 -8.7241611129488628E-01 a      1243     0    63     1     3
  9.7120447983460056E-01 a      1244     0    63     1     4
 -3.8660410521953792E-01 a      1245     0    63     1     5
 -1.3728702620093343E+00 a      1246     0    63     1     6
  1.0488323876465100E+00 a      1247     0    63     1     7
  7.2763784673353475E+00 a      1248     0    63     1     8
 -2.6291636135556744E+00 a      1249     0    63     1     9
  1.3651857258378195E+00 a      1250     0    63     1    10
 -1.3050517341841321E+00 a      1251     0    63     1    11
 -1.0676366800433761E+00 a      1252     0    63     1    12
  2.4906179330788311E-01 a      1253     0    63     1    13
 -7.7824382790734137E-01 a      1254     0    63     1    14
 -6.5876402037484305E-01 a      1255     0    63     1    15
 -1.4763872327998206E-01 a      1256     0    63     1    16
 -2.0585776255374046E+00 a      1257     0    63     1    17
  1.7004457465904648E+00 a      1258     0    63     1    18
  1.0629581825800941E-01 a      1259     0    63     1    19
 -7.5281930481678014E-02 a      1260     0    63     1    20
 -4.1478708613625137E-01 a      1261     0    64     1     1
 -5.2387578102369992E-02 a      1262     0    64     1     2
 -4.8040267034773820E-01 a      1263     0    64     1     3
  5.3841583656352426E-03 a      1264     0    64     1     4
  3.1679657294938052E-01 a      1265     0    64     1     5
  4.8849456759063999E-02 a      1266     0    64     1     6
  7.8192544047732471E-01 a      1267     0    64     1     7
  3.7771028708552679E-01 a      1268     0    64     1     8
 -2.8463569426636157E+00 a      1269     0    64     1     9
 -8.6854999619432927E-01 a      1270     0    64     1    10
  7.1428414848778465E-01 a      1271     0    64     1    11
 -1.1390874329516307E+00 a      1272     0    64     1    12
  3.2019275441413841E-01 a      1273     0    64     1    13
 -1.5987693154572991E+00 a      1274     0    64     1    14
 -2.4204411119614178E+00 a      1275     0    64     1    15
 -2.1876758175825155E+00 a      1276     0    64     1    16
  3.2064549490401606E+00 a      1277     0    64     1    17
 -5.1411999129655617E-01 a      1278     0    64     1    18
 -8.6735621502103755E-01 a      1279     0    64     1    19
  2.0544317020195182E+00 a      1280     0    64     1    20
  7.7857993262260927E-01 a      1281     0    65     1     1
  1.3068596291452641E+01 a      1282     0    65     1     2
 -8.8465719486982419E-01 a      1283     0    65     1     3
  4.6038306020355541E-01 a      1284     0    65     1     4
 -4.4024067463738801E+00 a      1285     0    65     1     5
  1.6987171463298332E+00 a      1286     0    65     1     6
 -2.0900768484670548E-01 a      1287     0    65     1     7
  4.9619095268142832E+00 a      1288     0    65     1     8
  2.3677620262821664E-01 a      1289     0    65     1     9
 -4.0739662596967617E-02 a      1290     0    65     1    10
  2.9529437391391833E-01 a      1291     0    65     1    11
 -2.0715720279111949E+00 a      1292     0    65     1    12
 -1.6144152769902956E-01 a      1293     0    65     1    13
  1.2542867486294390E-01 a      1294     0    65     1    14
 -1.5657388154248801E+00 a      1295     0    65     1    15
  3.4333191383945588E-01 a      1296     0    65     1    16
  2.4554891777048113E+00 a      1297     0    65     1    17
  5.7073037681921590E-01 a      1298     0    65     1    18
  3.5377763827463166E-01 a      1299     0    65     1    19
  3.4042541202409260E+00 a      1300     0    65     1    20
 -1.0773829363740757E+00 a      1301     0    66     1     1
 -8.0191969805756553E+00 a      1302     0    66     1     2
 -2.3975709820985105E+00 a      1303     0    66     1     3
  1.2325916026207506E+00 a      1304     0    66     1     4
 -2.2837552531868250E+00 a      1305     0    66     1     5
  1.7761319623112977E+00 a      1306     0    66     1     6
 -2.8621620811411330E+00 a      1307     0    66     1     7
 -7.4598582079579066E+00 a      1308     0    66     1     8
  7.3656612840263145E-03 a      1309     0    66     1     9
 -1.6758622560595715E+00 a      1310     0    66     1    10
  4.7203720386047463E+00 a      1311     0    66     1    11
 -5.2070051136343896E+00 a      1312     0    66     1    12
 -3.3262075544701735E+00 a      1313     0    66     1    13
  8.3793497530507288E+00 a      1314     0    66     1    14
 -1.0442581791958165E+00 a      1315     0    66     1    15
 -2.1071515777636147E+00 a      1316     0    66     1    16
  1.3903512570334343E+01 a      1317     0    66     1    17
 -4.1467252365781295E+00 a      1318     0    66     1    18
  1.2747837686383789E-01 a      1319     0    66     1    19
 -1.8105883420043725E-01 a      1320     0    66     1    20
  8.4601946753399393E-01 a      1321     0    67     1     1
 -1.3579227235310045E+00 a      1322     0    67     1     2
  1.6049901693287277E-01 a      1323     0    67     1     3
 -7.4023836344280669E-01 a      1324     0    67     1     4
  2.7478539657563550E+00 a      1325     0    67     1     5
 -2.2614026619136951E-01 a      1326     0    67     1     6
 -1.1800008062160829E+00 a      1327     0    67     1     7
 -1.9317197846576108E+00 a      1328     0    67     1     8
  2.0139684834842053E+00 a      1329     0    67     1     9
 -1.1600989577318470E-01 a      1330     0    67     1    10
 -1.9249277189686023E-01 a      1331     0    67     1    11
 -6.1163017471716552E-01 a      1332     0    67     1    12
 -1.8425693299288797E+00 a      1333     0    67     1    13
 -2.9507456331384524E-01 a      1334     0    67     1    14
  2.6165073889103829E+00 a      1335     0    67     1    15
  2.4943039926902282E+00 a      1336     0    67     1    16
 -2.5331706935375058E+00 a      1337     0    67     1    17
  4.4537482178256784E+00 a      1338     0    67     1    18
 -3.7186864770439709E-01 a      1339     0    67     1    19
 -2.1413439822984697E+00 a      1340     0    67     1    20
  7.9037797220570001E+00 a      1341     0    68     1     1
  6.8886871051303498E+00 a      1342     0    68     1     2
  2.0475872541651059E+00 a      1343     0    68     1     3
 -9.5012291949165439E-02 a      1344     0    68     1     4
  2.2280460530410324E+00 a      1345     0    68     1     5
  2.3523050941112760E+00 a      1346     0    68     1     6
 -4.6360743359412933E+00 a      1347     0    68     1     7
 -4.1969575809423807E+00 a      1348     0    68     1     8
  7.6234899438632659E+00 a      1349     0    68     1     9
  1.7528327818411280E+00 a      1350     0    68     1    10
 -2.1764782371602398E+00 a      1351     0    68     1    11
  2.7400410609417483E+00 a      1352     0    68     1    12
  2.3539596039098467E+00 a      1353     0    68     1    13
 -5.6364920488169812E+00 a      1354     0    68     1    14
 -6.6060666119090836E+00 a      1355     0    68     1    15
 -9.2439134867588235E-01 a      1356     0    68     1    16
 -2.7112350983062439E+00 a      1357     0    68     1    17
 -2.7175956861432908E+00 a      1358     0    68     1    18
  2.5580269290160516E+00 a      1359     0    68     1    19
 -1.1468381267365346E+00 a      1360     0    68     1    20
 -1.6369197168857550E+00 a      1361     0    69     1     1
 -3.0869097128673468E+00 a      1362     0    69     1     2
  1.9818454214902577E+00 a      1363     0    69     1     3
 -4.0915930365650011E-01 a      1364     0    69     1     4
 -5.4510092349731618E+00 a      1365     0    69     1     5
 -1.8625571474802636E+00 a      1366     0    69     1     6
  2.9689609415159226E+00 a      1367     0    69     1     7
 -2.7233466909080368E+00 a      1368     0    69     1     8
  3.6128326587267390E-01 a      1369     0    69     1     9
  2.6961136046069551E+00 a      1370     0    69     1    10
  1.0993671647641112E-01 a      1371     0    69     1    11
  1.7448724365227288E+00 a      1372     0    69     1    12
 -3.3316458008669523E+00 a      1373     0    69     1    13
  2.2447301264092943E+00 a      1374     0    69     1    14
 -2.4328757178586540E+00 a      1375     0    69     1    15
 -1.0035251249875803E+00 a      1376     0    69     1    16
 -1.9827968830192302E+00 a      1377     0    69     1    17
 -3.1555213492395047E+00 a      1378     0    69     1    18
  1.0337590202469489E+00 a      1379     0    69     1    19
  1.2329853682082039E+00 a      1380     0    69     1    20
  3.3716606650928380E+00 a      1381     0    70     1     1
 -1.4912603718636101E+01 a      1382     0    70     1     2
  3.6579670721666617E+00 a      1383     0    70     1     3
  1.3738051836025089E+00 a      1384     0    70     1     4
  4.8980427352662677E+00 a      1385     0    70     1     5
  1.3505870746148214E+00 a      1386     0    70     1     6
 -1.9124284976135395E+00 a      1387     0    70     1     7
 -8.5257388072070075E+00 a      1388     0    70     1     8
 -3.8057961243489458E+00 a      1389     0    70     1     9
  1.3277244506206347E+00 a      1390     0    70     1    10
  3.2557648149228782E+00 a      1391     0    70     1    11
  4.0744935555758817E+00 a      1392     0    70     1    12
  2.3994117620584250E+00 a      1393     0    70     1    13
 -6.1609041172938361E-01 a      1394     0    70     1    14
 -9.0041288320133217E-01 a      1395     0    70     1    15
 -1.3862319201098414E+00 a      1396     0    70     1    16
 -2.3919081489603009E+00 a      1397     0    70     1    17
  1.2337434252415567E+00 a      1398     0    70     1    18
  8.6117187337173196E-01 a      1399     0    70     1    19
 -6.1443053617455394E+00 a      1400     0    70     1    20
 -9.2119220405144520E-01 a      1401     0    71     1     1
 -1.1243251460388168E+00 a      1402     0    71     1     2
  2.3068861009137132E-01 a      1403     0    71     1     3
  3.0314155323739729E+00 a      1404     0    71     1     4
 -2.5995789963368696E+00 a      1405     0    71     1     5
 -1.8735175770329127E-01 a      1406     0    71     1     6
  7.8926525558829197E-01 a      1407     0    71     1     7
  1.5438349381470036E+00 a      1408     0    71     1     8
 -2.0100036991130401E+00 a      1409     0    71     1     9
  1.2069086736116023E-01 a      1410     0    71     1    10
  6.5271503379901341E-01 a      1411     0    71     1    11
  1.7857051710685543E-01 a      1412     0    71     1    12
 -2.1352011685946262E+00 a      1413     0    71     1    13
 -8.9071101579414569E-01 a      1414     0    71     1    14
 -4.1169055573016973E+00 a      1415     0    71     1    15
 -8.8160193491596783E-01 a      1416     0    71     1    16
  1.5501138054798831E+00 a      1417     0    71     1    17
  3.9734466835209514E+00 a      1418     0    71     1    18
 -2.4301235649026001E-01 a      1419     0    71     1    19
  2.6411076379130316E+00 a      1420     0    71     1    20
  2.6119928183943708E-01 a      1421     0    72     1     1
 -1.3442892838810141E+00 a      1422     0    72     1     2
  1.5646393106252900E-02 a      1423     0    72     1     3
  1.4210127704873641E+00 a      1424     0    72     1     4
  3.4571942846841272E-02 a      1425     0    72     1     5
  3.4149117366959808E-01 a      1426     0    72     1     6
  1.6898474762018867E+00 a      1427     0    72     1     7
  2.8187143166713700E+00 a      1428     0    72     1     8
 -2.0897447590340530E+00 a      1429     0    72     1     9
  9.7927042598134184E-01 a      1430     0    72     1    10
  1.0022974515479688E-01 a      1431     0    72     1    11
  1.5762607079526042E-03 a      1432     0    72     1    12
 -1.9452096718284679E+00 a      1433     0    72     1    13
 -7.9191948086375896E-01 a      1434     0    72     1    14
 -3.2350811016737896E-01 a      1435     0    72     1    15
  2.6974148997548775E-01 a      1436     0    72     1    16
 -5.4562549141726591E-01 a      1437     0    72     1    17
  1.3265301068786268E+00 a      1438     0    72     1    18
  1.3623555973674546E+00 a      1439     0    72     1    19
 -1.3370297581564605E-01 a      1440     0    72     1    20
 -2.4924574321030661E+00 a      1441     0    73     1     1
  1.0114369452818126E+00 a      1442     0    73     1     2
  1.9456773203233393E+00 a      1443     0    73     1     3
 -2.4772847587025857E+00 a      1444     0    73     1     4
  1.3765042806295213E+00 a      1445     0    73     1     5
  9.8140895997490163E-01 a      1446     0    73     1     6
 -4.4332978542063078E-01 a      1447     0    73     1     7
 -1.2695190967009362E+00 a      1448     0    73     1     8
  2.8416677944073214E+00 a      1449     0    73     1     9
  6.5052986212780362E-01 a      1450     0    73     1    10
  5.4114206411107779E-01 a      1451     0    73     1    11
  4.4731460025885378E-01 a      1452     0    73     1    12
 -3.5319470903000880E+00 a      1453     0    73     1    13
  6.5963860026163668E-01 a      1454     0    73     1    14
  2.0694526620782563E+00 a      1455     0    73     1    15
 -2.5908182036731189E+00 a      1456     0    73     1    16
  1.1557718945816795E+00 a      1457     0    73     1    17
 -5.8996590362512276E+00 a      1458     0    73     1    18
  5.5772557882516594E-01 a      1459     0    73     1    19
 -6.9581285721724240E-01 a      1460     0    73     1    20
 -7.9936314595020530E-01 a      1461     0    74     1     1
  4.2706560762001402E+00 a      1462     0    74     1     2
  1.3961681794015828E+00 a      1463     0    74     1     3
 -3.2777369714998650E+00 a      1464     0    74     1     4
  4.1940029898866793E-01 a      1465     0    74     1     5
  1.5954539839817825E+00 a      1466     0    74     1     6
 -2.8309683709321494E+00 a      1467     0    74     1     7
 -1.3377773285514792E+01 a      1468     0    74     1     8
  3.7187156765857350E+00 a      1469     0    74     1     9
 -1.9202586513086379E+00 a      1470     0    74     1    10
  1.6518051416914035E+00 a      1471     0    74     1    11
  1.0155967698372732E+00 a      1472     0    74     1    12
  1.4909892888211893E+00 a      1473     0    74     1    13
  7.5518510290060936E-01 a      1474     0    74     1    14
  6.0052636399531034E-01 a      1475     0    74     1    15
 -3.6925815885036994E-01 a      1476     0    74     1    16
  2.8604874256180293E+00 a      1477     0    74     1    17
 -5.7335584028651549E+00 a      1478     0    74     1    18
 -4.2505267937081476E-01 a      1479     0    74     1    19
 -2.4777698245981636E-01 a      1480     0    74     1    20
  6.2697427800590833E-01 a      1481     0    75     1     1
 -1.9704937865740921E+00 a      1482     0    75     1     2
  1.2469130812665140E+01 a      1483     0    75     1     3
 -4.9833828705878064E-01 a      1484     0    75     1     4
  1.1368475445222579E+01 a      1485     0    75     1     5
 -8.5086216843981006E+00 a      1486     0    75     1     6
 -2.9557619643949948E+00 a      1487     0    75     1     7
 -4.6255289472449617E+00 a      1488     0    75     1     8
 -5.6435174911061496E+00 a      1489     0    75     1     9
  1.3881358563613126E+01 a      1490     0    75     1    10
  4.8816870096907214E+00 a      1491     0    75     1    11
  2.1634525274305902E-01 a      1492     0    75     1    12
  1.0374081282902874E+00 a      1493     0    75     1    13
  1.3452363248252338E+01 a      1494     0    75     1    14
 -6.1892665366410338E+00 a      1495     0    75     1    15
  2.4850391134283494E+00 a      1496     0    75     1    16
 -8.7071358779407788E+00 a      1497     0    75     1    17
 -7.7130865568463918E+00 a      1498     0    75     1    18
 -4.8567144209094506E+00 a      1499     0    75     1    19
  1.9154714143132476E+00 a      1500     0    75     1    20
 -9.5598703629068833E+00 a      1501     0    76     1     1
  8.5036355234566496E+00 a      1502     0    76     1     2
 -1.1894940364989548E+01 a      1503     0    76     1     3
 -4.0066777124984965E+00 a      1504     0    76     1     4
 -7.0982177252686798E+00 a      1505     0    76     1     5
  1.1644384497143966E+01 a      1506     0    76     1     6
 -9.3871606062349877E-01 a      1507     0    76     1     7
  4.6086373771354348E+00 a      1508     0    76     1     8
  7.1864326504986895E+00 a      1509     0    76     1     9
 -1.4211730312847246E+01 a      1510     0    76     1    10
 -6.4519283963849903E+00 a      1511     0    76     1    11
 -3.4192623400890438E+00 a      1512     0    76     1    12
 -5.9200606574181724E-01 a      1513     0    76     1    13
 -2.2603954222738757E+01 a      1514     0    76     1    14
  1.0614127245430303E+00 a      1515     0    76     1    15
 -1.1879903642834699E+00 a      1516     0    76     1    16
  7.6535736995621551E-01 a      1517     0    76     1    17
 -1.2013271168290434E+01 a      1518     0    76     1    18
  8.7544663958020996E-01 a      1519     0    76     1    19
 -2.5694931314909799E+00 a      1520     0    76     1    20
  1.0408932191101542E+01 a      1521     0    77     1     1
 -2.4998825592323275E+00 a      1522     0    77     1     2
 -1.2418430737949824E+00 a      1523     0    77     1     3
  3.9106579637998315E+00 a      1524     0    77     1     4
 -5.6887667787008223E+00 a      1525     0    77     1     5
 -4.6957793873739586E+00 a      1526     0    77     1     6
  3.4542843191540977E+00 a      1527     0    77     1     7
 -7.7139852598405927E+00 a      1528     0    77     1     8
  3.5273143135499435E-01 a      1529     0    77     1     9
 -2.8656026929315446E+00 a      1530     0    77     1    10
  2.1536412806117546E+00 a      1531     0    77     1    11
  3.2033544193207129E+00 a      1532     0    77     1    12
  6.1702071835330285E-01 a      1533     0    77     1    13
  1.1632704234417053E+01 a      1534     0    77     1    14
  9.1400626261345543E+00 a      1535     0    77     1    15
 -3.5116649919264802E+00 a      1536     0    77     1    16
  1.7195659707333771E+01 a      1537     0    77     1    17
 -1.8521277966204408E+01 a      1538     0    77     1    18
  4.6550163736646208E+00 a      1539     0    77     1    19
 -3.1012369301329595E-01 a      1540     0    77     1    20
 -3.3041307946043652E-01 a      1541     0    78     1     1
 -8.4854620868858854E-01 a      1542     0    78     1     2
  5.4517678538342562E-01 a      1543     0    78     1     3
 -1.0676326973266552E+00 a      1544     0    78     1     4
 -3.5170112916264471E+00 a      1545     0    78     1     5
 -1.1262972001273720E-01 a      1546     0    78     1     6
 -3.5411832389893927E-01 a      1547     0    78     1     7
 -4.9955043480388528E-01 a      1548     0    78     1     8
 -4.8713861101801487E-01 a      1549     0    78     1     9
  8.5707703993439044E-01 a      1550     0    78     1    10
  1.3862500432009218E-02 a      1551     0    78     1    11
  2.4917939336778946E-01 a      1552     0    78     1    12
 -1.1135629435433971E+00 a      1553     0    78     1    13
 -7.0863099364018689E-01 a      1554     0    78     1    14
 -2.1867148589180285E+00 a      1555     0    78     1    15
  3.8583483389689183E-01 a      1556     0    78     1    16
  4.5914393147883270E-01 a      1557     0    78     1    17
  1.1930283345461985E-01 a      1558     0    78     1    18
  9.3690278514372194E-01 a      1559     0    78     1    19
 -1.4655007831087923E+00 a      1560     0    78     1    20
  8.9341112174500070E-01 a      1561     0    79     1     1
  6.4194874511716926E-01 a      1562     0    79     1     2
 -1.0751812102369955E+00 a      1563     0    79     1     3
 -4.1334474448453951E-01 a      1564     0    79     1     4
  4.4100330961018613E-01 a      1565     0    79     1     5
  2.0773940976170341E-01 a      1566     0    79     1     6
 -5.6970042479855920E-01 a      1567     0    79     1     7
 -1.8971257201812979E+00 a      1568     0    79     1     8
 -1.3116633306896619E+00 a      1569     0    79     1     9
 -4.2351755063416180E-01 a      1570     0    79     1    10
 -1.2549454376402644E-01 a      1571     0    79     1    11
  4.8438773674462449E-01 a      1572     0    79     1    12
  3.3344265236631898E-01 a      1573     0    79     1    13
 -5.2615716026311661E-02 a      1574     0    79     1    14
 -7.1535444386014238E-02 a      1575     0    79     1    15
 -1.6976107929262246E-01 a      1576     0    79     1    16
  3.5132876442347277E-01 a      1577     0    79     1    17
  3.4598753678862187E-01 a      1578     0    79     1    18
 -2.0424680687236596E-01 a      1579     0    79     1    19
  3.3905007327594233E-01 a      1580     0    79     1    20
  4.6368519053311724E-01 a      1581     0    80     1     1
  2.7832913702189943E+00 a      1582     0    80     1     2
 -9.8744366206925827E-01 a      1583     0    80     1     3
  1.1299045559111329E-01 a      1584     0    80     1     4
  1.1010514924425130E-01 a      1585     0    80     1     5
  3.5880741944320099E-01 a      1586     0    80     1     6
 -2.1701730369200742E+00 a      1587     0    80     1     7
 -1.0894486340801349E+01 a      1588     0    80     1     8
  2.3807203310445016E-01 a      1589     0    80     1     9
 -3.9186113433132502E-01 a      1590     0    80     1    10
 -1.9405341511973137E-01 a      1591     0    80     1    11
  1.1714582158714740E-01 a      1592     0    80     1    12
 -7.4028131135461717E-01 a      1593     0    80     1    13
 -5.3202421729048510E-01 a      1594     0    80     1    14
  2.0953104293807503E-01 a      1595     0    80     1    15
 -9.2881234992578343E-01 a      1596     0    80     1    16
 -8.8812617159011542E-01 a      1597     0    80     1    17
  1.8570615691020600E+00 a      1598     0    80     1    18
 -4.8252745857331514E-01 a      1599     0    80     1    19
 -4.4968067264251627E-01 a      1600     0    80     1    20
  5.1661368390447810E+00 a      1601     0    81     1     1
 -3.2262833912265707E+00 a      1602     0    81     1     2
  8.9866898159583741E-01 a      1603     0    81     1     3
  2.6659526963638012E+00 a      1604     0    81     1     4
  4.0855953507882621E+00 a      1605     0    81     1     5
  2.7880989842082800E+00 a      1606     0    81     1     6
  2.6938773833717975E+00 a      1607     0    81     1     7
 -1.4232471472122425E+01 a      1608     0    81     1     8
 -4.2029432070029795E+00 a      1609     0    81     1     9
  7.5134818265241847E+00 a      1610     0    81     1    10
 -1.6678518170760575E+00 a      1611     0    81     1    11
 -2.4519146302070022E-01 a      1612     0    81     1    12
 -4.0488915618675501E+00 a      1613     0    81     1    13
 -3.0916417011013926E+00 a      1614     0    81     1    14
 -6.8223188811709532E+00 a      1615     0    81     1    15
  3.3073524138134029E+00 a      1616     0    81     1    16
 -1.7369144815706132E+01 a      1617     0    81     1    17
 -2.3836397076617200E+00 a      1618     0    81     1    18
 -1.1224692692408702E+00 a      1619     0    81     1    19
  2.8308225213048526E+00 a      1620     0    81     1    20
 -6.7083080404587048E-01 a      1621     0    82     1     1
  3.3281412092426792E+00 a      1622     0    82     1     2
  6.7347595740284727E-01 a      1623     0    82     1     3
